{
    "in_shape": [
        1,
        null,
        264,
        8
    ],
    "layers": [
        {
            "type": "conv2d",
            "activation": "relu",
            "shape": [
                1,
                null,
                88,
                32
            ],
            "kernel_size_time": 5,
            "kernel_size_feature": 5,
            "dilation": 1,
            "strides": 3,
            "num_filters_in": 8,
            "num_features_in": 264,
            "num_filters_out": 32,
            "padding": "same",
            "weights": [
                [
                    [
                        [
                            [
                                -0.21944934129714966,
                                0.05897047370672226,
                                0.16477330029010773,
                                -0.14918804168701172,
                                0.2043820470571518,
                                0.058847736567258835,
                                0.3775934875011444,
                                -0.14750123023986816,
                                -0.019823770970106125,
                                -0.14805752038955688,
                                0.0033334081526845694,
                                0.06783727556467056,
                                0.3646200895309448,
                                -0.3073735535144806,
                                -0.005107240751385689,
                                0.06415027379989624,
                                -0.03208678215742111,
                                0.0896400734782219,
                                0.4646148979663849,
                                -0.4104118347167969,
                                0.19407062232494354,
                                -0.12443545460700989,
                                0.002648968482390046,
                                0.06744951009750366,
                                0.30176565051078796,
                                -0.2304145097732544,
                                0.2695867121219635,
                                -0.19262073934078217,
                                0.03706088289618492,
                                0.3174671530723572,
                                -0.12330760061740875,
                                -0.10214212536811829
                            ],
                            [
                                -0.022502567619085312,
                                -0.3799973130226135,
                                0.014478757977485657,
                                0.18529044091701508,
                                -0.13154014945030212,
                                -0.12731364369392395,
                                0.24624235928058624,
                                1.092437505722046,
                                0.4284019470214844,
                                -0.3693486452102661,
                                0.025407670065760612,
                                -0.5756756067276001,
                                0.07203837484121323,
                                -0.23858784139156342,
                                -0.3029121458530426,
                                -0.6749658584594727,
                                -0.3017691671848297,
                                -0.9123948216438293,
                                0.007465270813554525,
                                0.148410826921463,
                                -0.503353476524353,
                                -0.061574410647153854,
                                -1.2817975282669067,
                                -0.2872045338153839,
                                -1.0745604038238525,
                                -0.2641303241252899,
                                0.40181732177734375,
                                0.7165117859840393,
                                0.09756284952163696,
                                -1.429378867149353,
                                0.003533007111400366,
                                0.08549229800701141
                            ],
                            [
                                -0.013682556338608265,
                                0.37246173620224,
                                0.06258662045001984,
                                0.04116068407893181,
                                -0.0021210163831710815,
                                -0.04376533627510071,
                                -0.33057868480682373,
                                0.5434480905532837,
                                0.08022872358560562,
                                0.16475491225719452,
                                -0.022593054920434952,
                                0.1109907329082489,
                                0.20510883629322052,
                                -0.008754418231546879,
                                -0.15994739532470703,
                                -0.5659238696098328,
                                -0.28494197130203247,
                                -0.571863055229187,
                                0.27379360795021057,
                                -0.1822698712348938,
                                -0.50795578956604,
                                -0.07529393583536148,
                                -0.4820334315299988,
                                0.017122715711593628,
                                -0.5626227259635925,
                                -0.2607761323451996,
                                0.048133257776498795,
                                -0.5128642916679382,
                                0.16955365240573883,
                                -0.575302004814148,
                                -0.07835711538791656,
                                0.5951685309410095
                            ],
                            [
                                -0.08226504176855087,
                                0.47344258427619934,
                                0.02328505367040634,
                                -0.030543681234121323,
                                -0.02265353314578533,
                                -0.14772078394889832,
                                -0.17515519261360168,
                                -0.15349510312080383,
                                0.08344254642724991,
                                -0.12745152413845062,
                                -0.04807217791676521,
                                0.18605948984622955,
                                0.1512538343667984,
                                -0.04151114448904991,
                                0.09538104385137558,
                                -0.5043067932128906,
                                -0.02643544413149357,
                                -0.46834373474121094,
                                0.3468303382396698,
                                0.004004035610705614,
                                -0.4220770299434662,
                                0.038778454065322876,
                                0.016156937927007675,
                                -0.018880316987633705,
                                -0.3553681969642639,
                                -0.0803103968501091,
                                -0.22795231640338898,
                                -0.5076409578323364,
                                -0.07908182591199875,
                                -0.33922097086906433,
                                -0.26490119099617004,
                                0.05650978535413742
                            ],
                            [
                                0.09802880138158798,
                                0.27810442447662354,
                                0.02957029454410076,
                                0.01145877968519926,
                                -0.01693027839064598,
                                -0.170567125082016,
                                -0.06840421259403229,
                                -0.0945669412612915,
                                0.031600117683410645,
                                0.07828302681446075,
                                -0.08180706948041916,
                                0.36660656332969666,
                                0.14680393040180206,
                                -0.027936385944485664,
                                0.10192196071147919,
                                -0.2530248165130615,
                                -0.04828129708766937,
                                -0.37582042813301086,
                                0.2552221119403839,
                                0.16565904021263123,
                                -0.22276850044727325,
                                -0.12198073416948318,
                                -0.07946022599935532,
                                -0.2545432448387146,
                                -0.14065489172935486,
                                0.05424186959862709,
                                -0.1933126002550125,
                                -0.49437007308006287,
                                0.1054951623082161,
                                -0.1716962456703186,
                                -0.06872667372226715,
                                0.251488596200943
                            ],
                            [
                                0.042716387659311295,
                                0.31972000002861023,
                                -0.010500585660338402,
                                -0.2671748697757721,
                                0.03439102694392204,
                                -0.1448071002960205,
                                0.07574623823165894,
                                -0.0386587418615818,
                                0.27850911021232605,
                                0.005499227438122034,
                                -0.06075119227170944,
                                0.3770084083080292,
                                0.19361630082130432,
                                -0.117194764316082,
                                0.06701774895191193,
                                -0.19666139781475067,
                                -0.042083386331796646,
                                -0.35198548436164856,
                                0.21252110600471497,
                                -0.052135124802589417,
                                -0.24764281511306763,
                                -0.1359873265028,
                                0.08763523399829865,
                                0.028500249609351158,
                                -0.19216541945934296,
                                -0.043621379882097244,
                                -0.32090267539024353,
                                -1.0384470224380493,
                                0.08564361929893494,
                                -0.1050434559583664,
                                -0.13982775807380676,
                                -0.27040591835975647
                            ],
                            [
                                -0.1547738015651703,
                                0.010156060568988323,
                                0.025730807334184647,
                                -0.18915437161922455,
                                0.04497160017490387,
                                -0.1833949238061905,
                                0.3464733064174652,
                                0.18731598556041718,
                                0.20525187253952026,
                                -0.3639664053916931,
                                -0.08459082990884781,
                                0.2601427435874939,
                                -0.1316128522157669,
                                -0.06030351668596268,
                                0.03120589256286621,
                                0.036628466099500656,
                                0.06424691528081894,
                                0.00354331498965621,
                                0.16427737474441528,
                                0.06946113705635071,
                                -0.01557729672640562,
                                -0.08808280527591705,
                                0.00928956363350153,
                                -0.04818645492196083,
                                0.1540774554014206,
                                -0.0539434589445591,
                                -0.15051674842834473,
                                -0.46083953976631165,
                                0.14556056261062622,
                                0.08693238347768784,
                                0.06635166704654694,
                                0.288321316242218
                            ],
                            [
                                0.21069493889808655,
                                0.3775405287742615,
                                0.02781510539352894,
                                -0.15061214566230774,
                                0.036228153854608536,
                                -0.06393110007047653,
                                0.2870612144470215,
                                -0.24592220783233643,
                                0.1634010225534439,
                                -0.19797903299331665,
                                -0.024444397538900375,
                                0.12285908311605453,
                                -0.08909658342599869,
                                0.10783249139785767,
                                -0.0034670308232307434,
                                -0.2731111943721771,
                                0.0075285290367901325,
                                -0.13786768913269043,
                                0.31370052695274353,
                                -0.35591286420822144,
                                -0.23767901957035065,
                                -0.057755593210458755,
                                0.0024891456123441458,
                                -0.16962304711341858,
                                -0.01837261952459812,
                                -0.06682877987623215,
                                0.11332356929779053,
                                -0.4132934808731079,
                                0.11556407809257507,
                                -0.08507954329252243,
                                -0.32733064889907837,
                                0.010065789334475994
                            ]
                        ],
                        [
                            [
                                -0.18605123460292816,
                                0.11739983409643173,
                                0.05586269125342369,
                                -0.1525053232908249,
                                0.03911933675408363,
                                -0.10893291234970093,
                                0.3402596712112427,
                                0.2954506278038025,
                                -0.377069354057312,
                                -0.19278830289840698,
                                -0.13508599996566772,
                                0.1949634850025177,
                                0.34523847699165344,
                                -0.24765416979789734,
                                0.0005459623644128442,
                                0.38576817512512207,
                                -0.006529714446514845,
                                0.10977904498577118,
                                0.3342397212982178,
                                -0.05794365704059601,
                                0.4818582832813263,
                                -0.033771295100450516,
                                0.49911755323410034,
                                -0.10129129886627197,
                                0.12037386745214462,
                                0.15710341930389404,
                                0.5359261631965637,
                                -0.8134608268737793,
                                -0.2020881474018097,
                                0.5905288457870483,
                                0.02588370442390442,
                                -0.06120625510811806
                            ],
                            [
                                -0.14155341684818268,
                                -0.19374480843544006,
                                -0.223773792386055,
                                -0.3910347819328308,
                                -0.1515883058309555,
                                -0.19531217217445374,
                                0.17938441038131714,
                                0.9836187958717346,
                                0.11785119026899338,
                                -0.3991227149963379,
                                -0.0061414530500769615,
                                -0.37866732478141785,
                                -0.0741126760840416,
                                -0.17509669065475464,
                                -0.6497463583946228,
                                -0.2112569659948349,
                                -0.1671578288078308,
                                -0.07656087726354599,
                                -0.33108946681022644,
                                -0.12559936940670013,
                                0.4011346995830536,
                                0.07961590588092804,
                                -1.0314326286315918,
                                -0.20486971735954285,
                                -1.165649652481079,
                                -0.10849560052156448,
                                0.4967435896396637,
                                0.05184348672628403,
                                0.13053011894226074,
                                -0.7026184797286987,
                                -0.049826208502054214,
                                0.4964008033275604
                            ],
                            [
                                -0.08895966410636902,
                                0.11976306885480881,
                                -0.15883876383304596,
                                -0.3941223919391632,
                                -0.013609763234853745,
                                -0.1925201267004013,
                                -0.06455516070127487,
                                -0.05195235088467598,
                                0.36853426694869995,
                                0.2750532627105713,
                                0.034973032772541046,
                                0.17595553398132324,
                                -0.37064337730407715,
                                -0.2315579205751419,
                                -0.40490368008613586,
                                -0.45892101526260376,
                                -0.3543330729007721,
                                -0.13017813861370087,
                                -0.26918524503707886,
                                -0.050356876105070114,
                                0.012799620628356934,
                                -0.04474528506398201,
                                -0.4468500018119812,
                                -0.059326380491256714,
                                -0.4762979745864868,
                                0.0076547469943761826,
                                -0.09993913769721985,
                                -0.05269715189933777,
                                0.3258320391178131,
                                -0.044682826846838,
                                -0.025637304410338402,
                                0.12454556673765182
                            ],
                            [
                                -0.2910231649875641,
                                -0.00820113904774189,
                                -0.15722934901714325,
                                -0.23343400657176971,
                                -0.21504907310009003,
                                -0.07639383524656296,
                                0.2466769963502884,
                                0.2817111015319824,
                                0.026309674605727196,
                                0.10946693271398544,
                                0.07965335249900818,
                                0.04697227478027344,
                                -0.09442166984081268,
                                -0.346798300743103,
                                -0.26046454906463623,
                                -0.2677125632762909,
                                -0.2047855257987976,
                                -0.28626278042793274,
                                -0.23367901146411896,
                                -0.004334359895437956,
                                0.050044916570186615,
                                0.1356775164604187,
                                -0.23354335129261017,
                                0.14692945778369904,
                                -0.38647177815437317,
                                0.0908605232834816,
                                -0.17546023428440094,
                                -0.062431249767541885,
                                0.005997927393764257,
                                0.08385997265577316,
                                0.0723731517791748,
                                0.076249860227108
                            ],
                            [
                                -0.15532058477401733,
                                0.07783746719360352,
                                -0.026132775470614433,
                                -0.35442042350769043,
                                -0.1767459660768509,
                                0.03794235736131668,
                                0.5910180807113647,
                                0.09572941809892654,
                                0.024622702971100807,
                                0.12307054549455643,
                                0.05102112889289856,
                                0.007838956080377102,
                                0.04435709863901138,
                                -0.39599502086639404,
                                -0.11485210061073303,
                                0.009748689830303192,
                                -0.11458301544189453,
                                -0.11168165504932404,
                                -0.13311606645584106,
                                -0.1860145479440689,
                                0.18216295540332794,
                                -0.011088608764111996,
                                -0.11642128229141235,
                                0.07626084983348846,
                                -0.25643283128738403,
                                -0.10956339538097382,
                                -0.028293220326304436,
                                0.045495081692934036,
                                0.09061814844608307,
                                0.142351433634758,
                                -0.03699753060936928,
                                0.15781742334365845
                            ],
                            [
                                -0.19630606472492218,
                                -0.029060717672109604,
                                0.01905205100774765,
                                -0.3468301296234131,
                                -0.015559244900941849,
                                -0.003851408837363124,
                                0.33676034212112427,
                                -0.20477192103862762,
                                0.12707500159740448,
                                0.03135872259736061,
                                0.04245160520076752,
                                -0.006606426555663347,
                                -0.11417613923549652,
                                -0.31113770604133606,
                                -0.11124864965677261,
                                -0.11994823813438416,
                                0.08377886563539505,
                                -0.11686141788959503,
                                -0.1563534289598465,
                                -0.021299660205841064,
                                -0.041770853102207184,
                                0.09161850810050964,
                                -0.11260680109262466,
                                -0.14646802842617035,
                                -0.33934304118156433,
                                -0.041638389229774475,
                                0.09977477043867111,
                                0.27113306522369385,
                                0.1221589520573616,
                                -0.07131507247686386,
                                -0.04921165853738785,
                                -0.11478307098150253
                            ],
                            [
                                -0.08496753126382828,
                                0.2197299748659134,
                                -0.0058780452236533165,
                                -0.10259278118610382,
                                0.14255167543888092,
                                0.023506231606006622,
                                0.4519461393356323,
                                -0.32096409797668457,
                                -0.05761801451444626,
                                -0.22227703034877777,
                                -0.08117204904556274,
                                0.24260008335113525,
                                0.07173830270767212,
                                -0.14069518446922302,
                                -0.030554894357919693,
                                -0.11892729997634888,
                                -0.016068831086158752,
                                -0.18782036006450653,
                                -0.11972972750663757,
                                -0.3551541864871979,
                                0.0010849792743101716,
                                -0.038821760565042496,
                                0.016583306714892387,
                                0.024776922538876534,
                                -0.26719075441360474,
                                0.0029158717952668667,
                                -0.34605634212493896,
                                0.19318978488445282,
                                0.15093708038330078,
                                0.10118932276964188,
                                -0.05608859285712242,
                                -0.06538078933954239
                            ],
                            [
                                -0.03474864736199379,
                                0.24370679259300232,
                                -0.06378818303346634,
                                -0.0404290147125721,
                                -0.2842838764190674,
                                -0.009178698994219303,
                                0.25901538133621216,
                                0.08513029664754868,
                                0.33120977878570557,
                                -0.16132278740406036,
                                -0.060041606426239014,
                                0.07716406136751175,
                                0.08822618424892426,
                                -0.16203051805496216,
                                0.15926043689250946,
                                -0.2859940528869629,
                                -0.09214240312576294,
                                -0.0695091038942337,
                                0.01800079643726349,
                                0.19664987921714783,
                                -0.17581625282764435,
                                -0.11338654160499573,
                                -0.19712378084659576,
                                0.0028066427912563086,
                                -0.2037237286567688,
                                0.19516976177692413,
                                -0.40012964606285095,
                                -0.9559646844863892,
                                0.08546072244644165,
                                -0.17629027366638184,
                                -0.03889702260494232,
                                0.2418515682220459
                            ]
                        ],
                        [
                            [
                                0.12032230198383331,
                                0.013065250590443611,
                                0.12752984464168549,
                                -0.07687355577945709,
                                0.050580453127622604,
                                -0.06263372302055359,
                                0.2974441945552826,
                                -0.1913822591304779,
                                -0.3005852997303009,
                                -0.25267091393470764,
                                -0.03695594146847725,
                                -0.21138346195220947,
                                0.2850322723388672,
                                -0.24092626571655273,
                                0.015197086147964,
                                0.2751503586769104,
                                0.1513373851776123,
                                0.08605948090553284,
                                0.23217687010765076,
                                -0.2525770664215088,
                                0.334405779838562,
                                -0.0411946140229702,
                                0.016762059181928635,
                                0.10989265143871307,
                                0.08107607066631317,
                                0.05664850026369095,
                                0.12859439849853516,
                                -0.21693825721740723,
                                0.11827380955219269,
                                0.40185147523880005,
                                0.000737464870326221,
                                -0.2750431299209595
                            ],
                            [
                                -0.06130131706595421,
                                -0.05091743543744087,
                                -0.1531989723443985,
                                0.2821974456310272,
                                -0.24127693474292755,
                                -0.037970658391714096,
                                0.4496169686317444,
                                1.1373172998428345,
                                0.5992786884307861,
                                -0.4296382963657379,
                                -0.05948203429579735,
                                -0.9739806056022644,
                                -0.5149722099304199,
                                0.0920015275478363,
                                -0.3930518329143524,
                                -0.7643133997917175,
                                -0.36353442072868347,
                                -0.9364622235298157,
                                -0.7815986275672913,
                                -0.3364103436470032,
                                -0.29220283031463623,
                                -0.3335016667842865,
                                -1.6890398263931274,
                                0.3614567816257477,
                                -0.8663331866264343,
                                -0.1773153692483902,
                                0.19393514096736908,
                                0.3984612822532654,
                                0.4264069199562073,
                                -1.1584887504577637,
                                -0.2045130431652069,
                                0.6417514085769653
                            ],
                            [
                                -0.1548616737127304,
                                0.49504345655441284,
                                -0.049440667033195496,
                                -0.033372797071933746,
                                -0.2904796004295349,
                                0.007262376602739096,
                                -0.5881791710853577,
                                0.6216495037078857,
                                -0.0045819031074643135,
                                0.24544177949428558,
                                -0.08410613238811493,
                                -0.16524344682693481,
                                -0.17749132215976715,
                                0.408099889755249,
                                -0.46355506777763367,
                                -0.8520978093147278,
                                -0.09662514179944992,
                                -0.41523465514183044,
                                -0.1736365258693695,
                                -0.18461711704730988,
                                -0.415865957736969,
                                -0.08616755157709122,
                                -0.9101094603538513,
                                0.4324384331703186,
                                -0.3805653154850006,
                                0.16787102818489075,
                                -0.30729347467422485,
                                -0.24807782471179962,
                                0.3254038691520691,
                                -0.23076952993869781,
                                -0.12113510072231293,
                                0.5927037596702576
                            ],
                            [
                                -0.24020807445049286,
                                0.2736341655254364,
                                -0.1011374369263649,
                                -0.08312955498695374,
                                0.09364327043294907,
                                0.02101838029921055,
                                -0.36471012234687805,
                                0.25472497940063477,
                                0.3525984585285187,
                                0.0625881627202034,
                                -0.10157220810651779,
                                -0.13424862921237946,
                                -0.2882073223590851,
                                0.4236393868923187,
                                -0.3569248616695404,
                                -0.5658575296401978,
                                -0.12343456596136093,
                                -0.36205652356147766,
                                -0.19078035652637482,
                                -0.1668127477169037,
                                -0.25640448927879333,
                                -0.04522630572319031,
                                -0.5605080127716064,
                                0.03243792802095413,
                                -0.31260910630226135,
                                0.0918007418513298,
                                -0.20608098804950714,
                                -0.3315582871437073,
                                0.5010361075401306,
                                -0.13910861313343048,
                                -0.32718566060066223,
                                -0.2812751531600952
                            ],
                            [
                                -0.2960871458053589,
                                0.20136402547359467,
                                0.03444705158472061,
                                0.0017662415048107505,
                                -0.027674652636051178,
                                0.021399443969130516,
                                -0.40615570545196533,
                                -0.03125041350722313,
                                0.09841649979352951,
                                -0.0763588696718216,
                                0.015589933842420578,
                                -0.1544322520494461,
                                -0.30687475204467773,
                                0.44404444098472595,
                                -0.11590741574764252,
                                -0.48005300760269165,
                                0.23288658261299133,
                                -0.2843776345252991,
                                -0.003898805705830455,
                                -0.05664750561118126,
                                -0.13241349160671234,
                                -0.08027520775794983,
                                -0.3626725971698761,
                                0.29015547037124634,
                                -0.14136762917041779,
                                0.029761506244540215,
                                -0.09610302001237869,
                                -0.4377540349960327,
                                0.16085058450698853,
                                -0.07196350395679474,
                                -0.11059610545635223,
                                0.029181715101003647
                            ],
                            [
                                -0.07587147504091263,
                                0.5751363039016724,
                                -0.05742675065994263,
                                0.2693050503730774,
                                0.08822890371084213,
                                -0.0057360525242984295,
                                -0.4613089859485626,
                                0.026163948699831963,
                                -0.005501875653862953,
                                0.07286220788955688,
                                -0.08094843477010727,
                                -0.028906602412462234,
                                -0.20255479216575623,
                                0.4330625832080841,
                                -0.07771210372447968,
                                -0.3461516201496124,
                                -0.15813042223453522,
                                -0.19382354617118835,
                                -0.1161712035536766,
                                0.053784243762493134,
                                -0.23769181966781616,
                                -0.13103018701076508,
                                -0.16893912851810455,
                                0.09951672703027725,
                                -0.09229983389377594,
                                0.06506495922803879,
                                -0.3144543766975403,
                                0.08827842026948929,
                                0.35228514671325684,
                                -0.1012420505285263,
                                -0.07657808065414429,
                                0.23310592770576477
                            ],
                            [
                                -0.09603124111890793,
                                0.4518109858036041,
                                -0.014988605864346027,
                                -0.03175123780965805,
                                0.09352632611989975,
                                -0.13752037286758423,
                                -0.1908067762851715,
                                -0.03419505059719086,
                                0.01590650901198387,
                                -0.044251780956983566,
                                -0.0837441235780716,
                                -0.14741112291812897,
                                -0.18113262951374054,
                                0.2480458766222,
                                -0.11633697152137756,
                                -0.48468536138534546,
                                0.11364537477493286,
                                -0.10570629686117172,
                                0.010274759493768215,
                                -0.31010159850120544,
                                -0.20390400290489197,
                                -0.03764929622411728,
                                -0.26157817244529724,
                                0.11477465182542801,
                                0.005369789898395538,
                                0.09862540662288666,
                                0.11143352836370468,
                                -0.13725464046001434,
                                0.08181245625019073,
                                -0.016917942091822624,
                                -0.3360675573348999,
                                0.1740008294582367
                            ],
                            [
                                -0.1611892729997635,
                                0.162135049700737,
                                -0.028105953708291054,
                                -0.25185316801071167,
                                -0.02111389860510826,
                                0.017542289569973946,
                                0.36085593700408936,
                                -0.10859667509794235,
                                0.24312573671340942,
                                -0.15807275474071503,
                                -0.06079357862472534,
                                0.05087890848517418,
                                -0.2526106834411621,
                                -0.04231014847755432,
                                -0.01040763221681118,
                                -0.14318402111530304,
                                0.1686774641275406,
                                -0.2039654403924942,
                                0.0907057598233223,
                                0.2626534402370453,
                                0.028325024992227554,
                                -0.013995477929711342,
                                -0.3018431067466736,
                                -0.16776089370250702,
                                -0.3818683922290802,
                                0.20923824608325958,
                                -0.2687510848045349,
                                -0.14199304580688477,
                                0.11078774183988571,
                                0.02480337955057621,
                                -0.15040677785873413,
                                -0.07711506634950638
                            ]
                        ],
                        [
                            [
                                -0.10963869094848633,
                                0.01396549679338932,
                                0.006351398304104805,
                                -0.13310623168945312,
                                -0.07966906577348709,
                                -0.06861972063779831,
                                0.6662306785583496,
                                -0.06549125164747238,
                                0.13311675190925598,
                                0.17622010409832,
                                0.0923064723610878,
                                0.36890116333961487,
                                0.2740646004676819,
                                -0.075152687728405,
                                -0.07239384949207306,
                                0.04339810460805893,
                                0.049556031823158264,
                                0.023183548822999,
                                0.6414496302604675,
                                -0.1474793404340744,
                                0.0039022802375257015,
                                -0.08819551020860672,
                                0.22860591113567352,
                                -0.036745306104421616,
                                0.150071382522583,
                                -0.07951180636882782,
                                0.12000011652708054,
                                -0.15472960472106934,
                                -0.056879304349422455,
                                0.3065168261528015,
                                0.10336397588253021,
                                0.22763022780418396
                            ],
                            [
                                0.06858190149068832,
                                -0.268001526594162,
                                0.10577720403671265,
                                0.5300593376159668,
                                -0.16277562081813812,
                                -0.14633235335350037,
                                0.34024062752723694,
                                0.672913134098053,
                                0.45452865958213806,
                                -0.5045267939567566,
                                0.0024824426509439945,
                                -0.2953639626502991,
                                -0.34422582387924194,
                                0.24135494232177734,
                                -0.15139992535114288,
                                -0.16631750762462616,
                                -0.146169975399971,
                                -0.3423013687133789,
                                -0.8816781640052795,
                                0.27303194999694824,
                                -0.4977717399597168,
                                -0.409960001707077,
                                -0.6506439447402954,
                                0.5509560704231262,
                                -0.9138875007629395,
                                0.0002619207079987973,
                                -0.0827883929014206,
                                1.2183959484100342,
                                0.3686019778251648,
                                -1.4259581565856934,
                                -0.3078993260860443,
                                0.3975030183792114
                            ],
                            [
                                0.24514029920101166,
                                0.13086114823818207,
                                0.06069979816675186,
                                0.5347840189933777,
                                -0.23598258197307587,
                                -0.16329875588417053,
                                -0.8852187395095825,
                                0.08319123834371567,
                                0.0997975692152977,
                                0.27715596556663513,
                                0.02560489997267723,
                                -0.2575121521949768,
                                -0.37361523509025574,
                                0.05857258662581444,
                                0.08506428450345993,
                                -0.45584583282470703,
                                0.07903332263231277,
                                -0.35220998525619507,
                                0.21170459687709808,
                                0.3283860683441162,
                                -0.45460769534111023,
                                -0.22871309518814087,
                                -0.13893088698387146,
                                0.1977406144142151,
                                -0.7517579793930054,
                                -0.0741233080625534,
                                -0.5572832822799683,
                                -0.6520438194274902,
                                0.3788811266422272,
                                -0.6866037845611572,
                                -0.12460516393184662,
                                0.6071924567222595
                            ],
                            [
                                0.13080726563930511,
                                0.2705743610858917,
                                0.12230049818754196,
                                0.6753602623939514,
                                -0.3102819621562958,
                                -0.15881796181201935,
                                -0.6729056239128113,
                                0.2818000316619873,
                                0.2850337326526642,
                                -0.0700572282075882,
                                -0.11874202638864517,
                                -0.314498633146286,
                                -0.36602863669395447,
                                0.3513075113296509,
                                0.1796017289161682,
                                -0.35999056696891785,
                                0.01051675621420145,
                                -0.19946235418319702,
                                0.15670321881771088,
                                0.11383389681577682,
                                -0.4767802357673645,
                                -0.037755709141492844,
                                0.0021350602619349957,
                                0.2564750611782074,
                                -0.37105587124824524,
                                0.12387122958898544,
                                0.027125444263219833,
                                -0.25869399309158325,
                                0.41085880994796753,
                                -0.5173730254173279,
                                -0.05825566127896309,
                                -0.044659074395895004
                            ],
                            [
                                0.13103623688220978,
                                0.0514400489628315,
                                0.09505796432495117,
                                0.27628567814826965,
                                -0.13824839890003204,
                                -0.17226767539978027,
                                -0.38585567474365234,
                                -0.15684030950069427,
                                0.08586953580379486,
                                -0.10090917348861694,
                                -0.036365918815135956,
                                -0.07563205063343048,
                                -0.1845574975013733,
                                0.05797381326556206,
                                0.010913686826825142,
                                -0.13317321240901947,
                                -0.029745176434516907,
                                -0.05814499780535698,
                                0.17446759343147278,
                                0.28393083810806274,
                                -0.3165554702281952,
                                0.04344512149691582,
                                0.17378166317939758,
                                -0.02410314232110977,
                                -0.004268135875463486,
                                -0.06901207566261292,
                                0.08178813010454178,
                                -0.29917189478874207,
                                0.5421503782272339,
                                -0.20252785086631775,
                                0.03511355072259903,
                                0.09191235899925232
                            ],
                            [
                                -0.19579248130321503,
                                0.09037438780069351,
                                -0.05334984138607979,
                                0.29415422677993774,
                                -0.20865392684936523,
                                -0.005476294085383415,
                                -0.3110634982585907,
                                0.09254439920186996,
                                0.10921569913625717,
                                -0.13584664463996887,
                                -0.10138717293739319,
                                -0.26525822281837463,
                                -0.1927466243505478,
                                0.30781814455986023,
                                -0.13147760927677155,
                                -0.023379923775792122,
                                0.22946393489837646,
                                -0.019885998219251633,
                                0.04026765376329422,
                                0.27874478697776794,
                                -0.18041375279426575,
                                -0.08370291441679001,
                                -0.02302468940615654,
                                0.12272486835718155,
                                0.07037805020809174,
                                -0.11036732792854309,
                                0.25530070066452026,
                                -0.3853299021720886,
                                0.2798207700252533,
                                0.020777182653546333,
                                -0.1527324616909027,
                                -0.2216588258743286
                            ],
                            [
                                -0.1806962937116623,
                                0.5052217245101929,
                                -0.04909288510680199,
                                0.1004984900355339,
                                -0.07784369587898254,
                                -0.12430038303136826,
                                -0.044534437358379364,
                                0.17571492493152618,
                                0.13416743278503418,
                                -0.09532487392425537,
                                -0.027021531015634537,
                                0.16900621354579926,
                                -0.20147040486335754,
                                0.33566489815711975,
                                -0.009426111355423927,
                                0.08531876653432846,
                                0.09824929386377335,
                                -0.08551376312971115,
                                0.16805003583431244,
                                0.3058200478553772,
                                -0.31195276975631714,
                                0.0482872799038887,
                                0.16903111338615417,
                                0.017846740782260895,
                                -0.09700009971857071,
                                0.059826649725437164,
                                -0.14817887544631958,
                                -0.20170196890830994,
                                0.2920738458633423,
                                -0.11366693675518036,
                                0.10163288563489914,
                                0.19782575964927673
                            ],
                            [
                                -0.08066987246274948,
                                0.11024926602840424,
                                0.0678630843758583,
                                0.20057666301727295,
                                0.08678722381591797,
                                -0.1482822448015213,
                                -0.2651008367538452,
                                -0.20166964828968048,
                                0.10384856909513474,
                                -0.12155111879110336,
                                0.07175661623477936,
                                -0.016095135360956192,
                                0.011020783334970474,
                                0.41908079385757446,
                                0.09845248609781265,
                                -0.2800842523574829,
                                0.11196138709783554,
                                0.08798867464065552,
                                -0.01972333900630474,
                                -0.045045334845781326,
                                -0.2615768313407898,
                                0.03148965165019035,
                                0.15109752118587494,
                                0.1248755007982254,
                                -0.070142962038517,
                                -0.05502995103597641,
                                -0.03330467268824577,
                                0.22213412821292877,
                                0.31435540318489075,
                                -0.20529884099960327,
                                -0.1363195925951004,
                                -0.04616208001971245
                            ]
                        ],
                        [
                            [
                                -0.15522029995918274,
                                0.14525572955608368,
                                -0.048701975494623184,
                                -0.2419920116662979,
                                0.11578179895877838,
                                -0.02918826788663864,
                                0.41177821159362793,
                                0.1013314500451088,
                                -0.28776827454566956,
                                -0.16570332646369934,
                                0.0344313308596611,
                                0.269475519657135,
                                -0.11209665238857269,
                                -0.388430118560791,
                                0.09064523875713348,
                                0.4344412684440613,
                                0.023057835176587105,
                                0.2894280254840851,
                                0.8105983734130859,
                                0.10955885052680969,
                                0.1437934935092926,
                                -0.0644819512963295,
                                -0.09407263249158859,
                                0.01081524882465601,
                                -0.16649353504180908,
                                0.02169632911682129,
                                -0.10669901967048645,
                                -0.46243786811828613,
                                -0.06400925666093826,
                                0.45741602778434753,
                                -0.12969756126403809,
                                -0.31587961316108704
                            ],
                            [
                                0.2310161590576172,
                                0.1513911485671997,
                                -0.1525915265083313,
                                0.07010916620492935,
                                -0.2706226110458374,
                                -0.056375354528427124,
                                0.23115521669387817,
                                0.735762894153595,
                                0.10389408469200134,
                                -0.057095449417829514,
                                0.10413786768913269,
                                0.1952919065952301,
                                -0.5224527716636658,
                                -0.7331411838531494,
                                0.2581283748149872,
                                0.2576152980327606,
                                -0.30482837557792664,
                                0.4209546446800232,
                                -0.9551002979278564,
                                0.3839029371738434,
                                0.0884646475315094,
                                -0.1911327838897705,
                                -0.1653972715139389,
                                -0.1057778149843216,
                                -0.3412792980670929,
                                -0.07738825678825378,
                                -0.1607174575328827,
                                -0.4477510154247284,
                                -0.026686057448387146,
                                -0.2688215672969818,
                                -0.16976667940616608,
                                0.2426142394542694
                            ],
                            [
                                -0.11564157903194427,
                                0.08146050572395325,
                                -0.044162504374980927,
                                0.3418678045272827,
                                -0.17309454083442688,
                                -0.08297457545995712,
                                -0.4471215605735779,
                                -0.11962295323610306,
                                0.3238963484764099,
                                0.10388045758008957,
                                -0.030211009085178375,
                                0.1704922914505005,
                                -0.38037875294685364,
                                -0.39982327818870544,
                                0.28026625514030457,
                                0.07205957919359207,
                                -0.23660171031951904,
                                0.5913487672805786,
                                0.0534408874809742,
                                -0.05378042906522751,
                                -0.20640210807323456,
                                -0.0898679569363594,
                                0.3239456117153168,
                                -0.03441619873046875,
                                -0.1371658593416214,
                                -0.0330335795879364,
                                -0.16033734381198883,
                                -0.248163104057312,
                                0.32018181681632996,
                                0.0023370925337076187,
                                0.024295397102832794,
                                0.37708213925361633
                            ],
                            [
                                -0.09167583286762238,
                                -0.2286205142736435,
                                0.013891136273741722,
                                0.02823999524116516,
                                -0.2918164134025574,
                                0.0036015422083437443,
                                0.037132058292627335,
                                -0.10412953794002533,
                                0.06021200120449066,
                                0.13501079380512238,
                                -0.02347973734140396,
                                0.0028234869241714478,
                                -0.30785053968429565,
                                -0.5104283690452576,
                                0.17403441667556763,
                                0.18982470035552979,
                                0.10314636677503586,
                                0.5480068325996399,
                                -0.22152499854564667,
                                0.1505189687013626,
                                -0.041013386100530624,
                                -0.013330471701920033,
                                0.19736842811107635,
                                -0.1860719919204712,
                                0.08084568381309509,
                                0.06829535216093063,
                                0.2762707471847534,
                                -0.09565240889787674,
                                0.2291594296693802,
                                0.09286974370479584,
                                0.037248395383358,
                                -0.2691025733947754
                            ],
                            [
                                0.121305912733078,
                                0.04695378243923187,
                                -0.02402561716735363,
                                0.10849283635616302,
                                -0.14987102150917053,
                                -0.06926077604293823,
                                -0.05328619107604027,
                                -0.0022421961184591055,
                                0.19420604407787323,
                                0.16170334815979004,
                                -0.07530751824378967,
                                -0.23412451148033142,
                                -0.21630242466926575,
                                -0.13343945145606995,
                                0.39397650957107544,
                                0.385067880153656,
                                -0.16512146592140198,
                                0.6379542946815491,
                                -0.09167581051588058,
                                -0.10673955082893372,
                                -0.1480279117822647,
                                -0.06966269016265869,
                                0.2265280783176422,
                                0.03420054912567139,
                                0.07961857318878174,
                                0.08605347573757172,
                                -0.2520245611667633,
                                0.24459406733512878,
                                0.1172320544719696,
                                0.07307584583759308,
                                0.24031303822994232,
                                0.12776996195316315
                            ],
                            [
                                0.2408185750246048,
                                0.14767110347747803,
                                -0.012874491512775421,
                                0.04851546511054039,
                                0.03134090453386307,
                                0.08992753177881241,
                                0.2824068069458008,
                                -0.3923397362232208,
                                0.08742185682058334,
                                -0.05591224506497383,
                                -0.028862349689006805,
                                -0.45367246866226196,
                                0.04893018305301666,
                                -0.39136987924575806,
                                0.18128176033496857,
                                0.05215567350387573,
                                -0.10009770840406418,
                                0.3572053015232086,
                                -0.208544060587883,
                                -0.09196128696203232,
                                0.1685018390417099,
                                -0.06778997927904129,
                                0.1520647406578064,
                                0.06650543212890625,
                                0.06193838268518448,
                                -0.09910833090543747,
                                0.13432639837265015,
                                0.4747888445854187,
                                0.11700759083032608,
                                0.08246634155511856,
                                0.09387682378292084,
                                -0.15453428030014038
                            ],
                            [
                                0.04149376228451729,
                                0.08418284356594086,
                                0.02521502785384655,
                                0.12901747226715088,
                                -0.052177734673023224,
                                -0.03588453307747841,
                                0.17664910852909088,
                                -0.3296016752719879,
                                -0.028861748054623604,
                                0.13370881974697113,
                                0.041424356400966644,
                                -0.21252360939979553,
                                -0.06339697539806366,
                                -0.2308209240436554,
                                0.017751067876815796,
                                0.09419068694114685,
                                0.000689395354129374,
                                0.42961323261260986,
                                -0.11830809712409973,
                                -0.24170850217342377,
                                -0.028695017099380493,
                                -0.052149899303913116,
                                0.019938349723815918,
                                0.07820472121238708,
                                0.117585189640522,
                                -0.012605034746229649,
                                -0.031079962849617004,
                                0.402763694524765,
                                0.3229021728038788,
                                0.08512917906045914,
                                -0.17632730305194855,
                                -0.17149485647678375
                            ],
                            [
                                -0.11428394168615341,
                                0.28277161717414856,
                                0.02848120778799057,
                                0.17491692304611206,
                                0.01928136684000492,
                                0.06738340109586716,
                                -0.015375936403870583,
                                -0.0344187468290329,
                                -0.19040395319461823,
                                -0.3711230158805847,
                                -0.12858332693576813,
                                -0.2517153024673462,
                                0.22246557474136353,
                                -0.04411255568265915,
                                -0.14632858335971832,
                                0.13609157502651215,
                                0.15789073705673218,
                                0.08029817044734955,
                                -0.20524752140045166,
                                0.3099493682384491,
                                0.06402911990880966,
                                0.04081747308373451,
                                0.24348732829093933,
                                0.08192925155162811,
                                0.47054147720336914,
                                0.005552643910050392,
                                -0.07621400058269501,
                                0.5066249966621399,
                                0.4109703004360199,
                                0.06126030161976814,
                                -0.18827471137046814,
                                -0.16013994812965393
                            ]
                        ]
                    ],
                    [
                        [
                            [
                                0.05618710815906525,
                                0.014742618426680565,
                                0.08161060512065887,
                                0.24941712617874146,
                                -0.2026374340057373,
                                -0.12262936681509018,
                                -0.23106923699378967,
                                -0.08339240401983261,
                                -0.024148376658558846,
                                0.14004549384117126,
                                0.04115758091211319,
                                -0.39953044056892395,
                                0.1621273159980774,
                                0.4588371813297272,
                                -0.118478924036026,
                                0.047532692551612854,
                                -0.029377752915024757,
                                0.03422075882554054,
                                -0.3540397882461548,
                                0.2625093162059784,
                                -0.15071487426757812,
                                0.18052905797958374,
                                -0.1722453534603119,
                                -0.053645651787519455,
                                0.0020375533495098352,
                                0.009204947389662266,
                                0.2177763432264328,
                                0.17310069501399994,
                                0.12912891805171967,
                                -0.06042107939720154,
                                0.13731031119823456,
                                -0.27062079310417175
                            ],
                            [
                                0.02295878157019615,
                                -0.44790324568748474,
                                -0.16937507688999176,
                                0.31960466504096985,
                                -0.1634877622127533,
                                0.02603898197412491,
                                0.4822300970554352,
                                0.3082602620124817,
                                -0.0233797337859869,
                                -0.2353743612766266,
                                0.08727748692035675,
                                0.12027788907289505,
                                0.2713911235332489,
                                -0.2180953174829483,
                                0.20745743811130524,
                                -0.44654691219329834,
                                -0.40183529257774353,
                                -0.5613242983818054,
                                0.483064740896225,
                                0.21047474443912506,
                                -0.3610187768936157,
                                0.10901857912540436,
                                -0.19461500644683838,
                                -0.5574713349342346,
                                -0.3218102753162384,
                                -0.3876219391822815,
                                -0.032913874834775925,
                                -0.29552367329597473,
                                0.22890564799308777,
                                -0.3549991548061371,
                                -0.223785400390625,
                                0.22990548610687256
                            ],
                            [
                                -0.057321202009916306,
                                0.13390900194644928,
                                -0.04663621261715889,
                                0.021786658093333244,
                                0.07985735684633255,
                                -0.040841445326805115,
                                0.47903791069984436,
                                0.34492820501327515,
                                0.20337030291557312,
                                0.12482786923646927,
                                -0.027179570868611336,
                                -0.05760405957698822,
                                0.11388981342315674,
                                -0.515198290348053,
                                0.21558338403701782,
                                0.0839480608701706,
                                -0.2705117464065552,
                                0.04700968787074089,
                                0.3561597168445587,
                                -0.1093420684337616,
                                -0.30195197463035583,
                                -0.012714849784970284,
                                -0.12706606090068817,
                                -0.10964373499155045,
                                -0.058842048048973083,
                                -0.13339976966381073,
                                0.0006926903733983636,
                                0.36834049224853516,
                                -0.28436794877052307,
                                -0.10567167401313782,
                                0.1385418027639389,
                                0.22753559052944183
                            ],
                            [
                                -0.11593851447105408,
                                -0.2860642969608307,
                                0.0651230737566948,
                                0.028456397354602814,
                                0.012279183603823185,
                                0.030857563018798828,
                                0.29234930872917175,
                                0.11617198586463928,
                                -0.02304977737367153,
                                0.14359457790851593,
                                -0.08329035341739655,
                                0.12978971004486084,
                                0.11805657297372818,
                                -0.2049829214811325,
                                -0.011209837161004543,
                                0.11414430290460587,
                                -0.3274945020675659,
                                -0.1871969997882843,
                                0.3304104208946228,
                                0.25815606117248535,
                                -0.044937871396541595,
                                0.03306027874350548,
                                0.027001887559890747,
                                -0.25431734323501587,
                                0.22827458381652832,
                                0.06670690327882767,
                                0.012925866059958935,
                                -0.4176064729690552,
                                0.2068270742893219,
                                -0.020652128383517265,
                                0.03784060478210449,
                                0.2556353509426117
                            ],
                            [
                                -0.15306930243968964,
                                0.09543973952531815,
                                0.03490293025970459,
                                -0.11920275539159775,
                                0.08105555176734924,
                                0.0343380942940712,
                                0.23957528173923492,
                                0.11018899083137512,
                                -0.06275911629199982,
                                -0.03373870998620987,
                                0.026398619636893272,
                                -0.005780048202723265,
                                0.045261774212121964,
                                -0.18058985471725464,
                                0.009626229293644428,
                                0.14973828196525574,
                                -0.2520337402820587,
                                -0.074486143887043,
                                0.2775489091873169,
                                0.07796528935432434,
                                -0.3763485848903656,
                                0.0908668115735054,
                                0.2996059060096741,
                                -0.11312079429626465,
                                0.2775276005268097,
                                0.05677064508199692,
                                -0.19819442927837372,
                                -0.39602887630462646,
                                -0.005818302743136883,
                                0.14206452667713165,
                                0.11794886738061905,
                                -0.038719482719898224
                            ],
                            [
                                -0.06954924017190933,
                                -0.21995460987091064,
                                -0.0319267213344574,
                                0.1454881876707077,
                                -0.17055393755435944,
                                0.058908961713314056,
                                0.3823865056037903,
                                0.21508020162582397,
                                -0.021357186138629913,
                                -0.0159929022192955,
                                -0.011036688461899757,
                                0.0377209410071373,
                                0.1757315695285797,
                                -0.16022838652133942,
                                0.062494467943906784,
                                -0.04606318846344948,
                                -0.22432896494865417,
                                -0.0077841682359576225,
                                0.29029756784439087,
                                0.1370837390422821,
                                -0.21806341409683228,
                                -0.15511241555213928,
                                -0.3122311532497406,
                                -0.27022022008895874,
                                0.10008127242326736,
                                0.08382752537727356,
                                -0.26991698145866394,
                                -0.721613883972168,
                                -0.058419499546289444,
                                0.09714669734239578,
                                -0.015242043882608414,
                                0.10857681185007095
                            ],
                            [
                                0.08160270750522614,
                                0.04224899038672447,
                                0.042207684367895126,
                                0.0953151136636734,
                                -0.11016616225242615,
                                0.009339702315628529,
                                0.3409062922000885,
                                -0.08013148605823517,
                                -0.12226229161024094,
                                0.15922102332115173,
                                0.06999826431274414,
                                -0.0026650000363588333,
                                0.21156585216522217,
                                -0.004097582306712866,
                                0.09360912442207336,
                                -0.05990602821111679,
                                -0.21353265643119812,
                                -0.0970572680234909,
                                0.25824615359306335,
                                0.08663678914308548,
                                -0.09541067481040955,
                                -0.08840994536876678,
                                0.16691811382770538,
                                -0.0746266320347786,
                                0.23518982529640198,
                                0.005076142027974129,
                                0.022857528179883957,
                                -0.4271358251571655,
                                0.1846206784248352,
                                0.16351275146007538,
                                0.014971992932260036,
                                -0.0687781348824501
                            ],
                            [
                                -0.16466666758060455,
                                -0.14889462292194366,
                                -0.02575751021504402,
                                0.1445641815662384,
                                0.051800746470689774,
                                0.049370795488357544,
                                0.5182511210441589,
                                -0.03020973689854145,
                                0.09208135306835175,
                                0.05846567451953888,
                                0.012347221374511719,
                                0.12137185782194138,
                                0.04212742671370506,
                                -0.27627959847450256,
                                -0.020932627841830254,
                                -0.02974984049797058,
                                -0.09215491265058517,
                                -0.23096926510334015,
                                0.1352856606245041,
                                -0.4980470836162567,
                                -0.034078199416399,
                                0.01104156393557787,
                                0.07852305471897125,
                                -0.1504376083612442,
                                0.12206463515758514,
                                -0.005363043863326311,
                                0.18606334924697876,
                                0.04606827348470688,
                                0.11067815124988556,
                                0.16268958151340485,
                                -0.16986492276191711,
                                -0.09959129244089127
                            ]
                        ],
                        [
                            [
                                0.11038229614496231,
                                0.23469972610473633,
                                0.0013567684218287468,
                                0.21232733130455017,
                                -0.18186408281326294,
                                0.1371629387140274,
                                -0.03953371196985245,
                                0.1727396845817566,
                                -0.058657143265008926,
                                -0.39859136939048767,
                                -0.003843278856948018,
                                -0.20111626386642456,
                                0.14332512021064758,
                                0.18631646037101746,
                                0.05056046321988106,
                                0.009826398454606533,
                                0.17126622796058655,
                                0.11644414812326431,
                                -0.035054512321949005,
                                0.1209537535905838,
                                0.02943466603755951,
                                -0.023617777973413467,
                                -0.3883809745311737,
                                0.068825863301754,
                                -0.3770301342010498,
                                -0.006897368934005499,
                                0.1040172427892685,
                                0.23688142001628876,
                                0.21308569610118866,
                                -0.033904239535331726,
                                0.18087483942508698,
                                0.01494187954813242
                            ],
                            [
                                -0.3487277626991272,
                                -0.03466952219605446,
                                -0.18985438346862793,
                                -0.22934384644031525,
                                0.017970040440559387,
                                -0.026277858763933182,
                                0.049000900238752365,
                                0.7392961978912354,
                                0.7347911596298218,
                                -0.534899890422821,
                                0.08316449820995331,
                                -0.40732643008232117,
                                0.22212383151054382,
                                -0.5070199370384216,
                                -0.4238615036010742,
                                -0.42017245292663574,
                                -0.479999840259552,
                                -0.2248159646987915,
                                0.1295083463191986,
                                0.13110166788101196,
                                0.008596968837082386,
                                0.07620701938867569,
                                -0.7596149444580078,
                                -0.06902110576629639,
                                -0.6961783170700073,
                                -0.26065966486930847,
                                0.225581094622612,
                                0.5892044305801392,
                                0.048487428575754166,
                                -0.7745305895805359,
                                -0.28635984659194946,
                                0.8133048415184021
                            ],
                            [
                                -0.3076243996620178,
                                0.11174389719963074,
                                -0.10658503323793411,
                                -0.15453343093395233,
                                -0.08196619898080826,
                                0.16873303055763245,
                                0.3243827521800995,
                                0.2990114688873291,
                                0.16968950629234314,
                                0.14196008443832397,
                                0.007899822667241096,
                                -0.43231531977653503,
                                -0.12941758334636688,
                                -0.39087262749671936,
                                -0.28226035833358765,
                                0.2912120521068573,
                                -0.3955308794975281,
                                -0.04322029650211334,
                                0.16795311868190765,
                                -0.15859079360961914,
                                -0.0127711221575737,
                                -0.022519700229167938,
                                -0.5283705592155457,
                                0.21248865127563477,
                                -0.32199153304100037,
                                0.0275728702545166,
                                0.4289063811302185,
                                0.08269382268190384,
                                0.11162815243005753,
                                -0.5212677121162415,
                                -0.15510772168636322,
                                0.305446594953537
                            ],
                            [
                                -0.03956734016537666,
                                0.12565980851650238,
                                -0.07121805846691132,
                                -0.17451751232147217,
                                -0.1983986347913742,
                                0.038582105189561844,
                                0.4150651693344116,
                                0.3202030062675476,
                                0.20969781279563904,
                                -0.08547845482826233,
                                -0.040083982050418854,
                                -0.06788869202136993,
                                -0.2322598099708557,
                                -0.15134887397289276,
                                -0.1923501342535019,
                                0.0564018078148365,
                                -0.003038455033674836,
                                -0.10204089432954788,
                                0.12755241990089417,
                                -0.046919796615839005,
                                -0.1579822301864624,
                                0.05917482450604439,
                                -0.505948543548584,
                                -0.0303952656686306,
                                -0.389944851398468,
                                0.24850307404994965,
                                0.08260957151651382,
                                -0.08696568757295609,
                                0.2058102935552597,
                                -0.2339814007282257,
                                -0.16453421115875244,
                                0.251152902841568
                            ],
                            [
                                -0.276606023311615,
                                -0.07547767460346222,
                                -0.04232488200068474,
                                -0.12131515145301819,
                                0.08489348739385605,
                                -0.09545544534921646,
                                0.37857043743133545,
                                0.03857461363077164,
                                0.32249411940574646,
                                0.02466672472655773,
                                -0.012632947415113449,
                                -0.26537200808525085,
                                -0.27586671710014343,
                                -0.13788101077079773,
                                -0.24745842814445496,
                                0.1599281132221222,
                                -0.3684237599372864,
                                -0.013804962858557701,
                                0.08678814768791199,
                                -0.2311169058084488,
                                -0.22683532536029816,
                                -0.09876476973295212,
                                -0.11255563050508499,
                                -0.15861625969409943,
                                -0.23976865410804749,
                                0.05930674821138382,
                                -0.07632430642843246,
                                -0.17713379859924316,
                                0.167583629488945,
                                -0.262178510427475,
                                -0.21919168531894684,
                                0.2840808928012848
                            ],
                            [
                                0.02008093148469925,
                                -0.1710129827260971,
                                -0.10278470069169998,
                                0.023775633424520493,
                                -0.2916693687438965,
                                0.08742409944534302,
                                0.1800025850534439,
                                0.20395484566688538,
                                0.26294776797294617,
                                0.17517486214637756,
                                -0.03397725895047188,
                                -0.10495627671480179,
                                -0.4375390112400055,
                                0.08998925238847733,
                                -0.25143271684646606,
                                -0.18675924837589264,
                                -0.016954315826296806,
                                -0.06725282222032547,
                                -0.022294335067272186,
                                -0.14795109629631042,
                                -0.042231835424900055,
                                -0.007685631979256868,
                                -0.10392385721206665,
                                0.1405908167362213,
                                -0.37867271900177,
                                0.1089153066277504,
                                -0.23034121096134186,
                                -0.29017174243927,
                                -0.016286250203847885,
                                -0.23944249749183655,
                                -0.09180551022291183,
                                0.24119070172309875
                            ],
                            [
                                0.002089473884552717,
                                -0.02264351397752762,
                                -0.06039208918809891,
                                -0.1421719491481781,
                                -0.1990894079208374,
                                0.03286843001842499,
                                0.21450093388557434,
                                -0.11461979895830154,
                                0.3300413489341736,
                                0.09199963510036469,
                                0.004217677284032106,
                                -0.08019622415304184,
                                -0.16940632462501526,
                                -0.24722543358802795,
                                0.0020360418129712343,
                                -0.05656198412179947,
                                0.058692723512649536,
                                -0.0422261580824852,
                                0.1011413186788559,
                                -0.16115702688694,
                                0.03629511594772339,
                                0.07239188998937607,
                                0.06348738819360733,
                                -0.0688871517777443,
                                -0.017147013917565346,
                                -0.0019385628402233124,
                                0.15734350681304932,
                                -0.4827706813812256,
                                0.07977954298257828,
                                -0.0005073967622593045,
                                -0.14355304837226868,
                                0.4165703356266022
                            ],
                            [
                                0.03201448544859886,
                                -0.2545100450515747,
                                -0.07428832352161407,
                                -0.22834673523902893,
                                -0.07815517485141754,
                                0.08297977596521378,
                                0.15556548535823822,
                                0.1586798131465912,
                                0.17891645431518555,
                                -0.10573206841945648,
                                0.055231913924217224,
                                -0.1269317865371704,
                                -0.11894815415143967,
                                0.018188443034887314,
                                -0.11345478892326355,
                                -0.28281933069229126,
                                -0.24280695617198944,
                                -0.20244839787483215,
                                0.21633663773536682,
                                0.11456606537103653,
                                -0.25770631432533264,
                                -0.06718549877405167,
                                -0.06298644095659256,
                                -0.14829233288764954,
                                -0.052813366055488586,
                                0.13417497277259827,
                                0.10956938564777374,
                                -0.970233678817749,
                                -0.03659971430897713,
                                -0.047605182975530624,
                                0.1203070729970932,
                                0.034226879477500916
                            ]
