{
    "in_shape": [
        1,
        null,
        264,
        8
    ],
    "layers": [
        {
            "type": "conv2d",
            "activation": "relu",
            "shape": [
                1,
                null,
                264,
                8
            ],
            "kernel_size_time": 3,
            "kernel_size_feature": 39,
            "dilation": 1,
            "strides": 1,
            "num_filters_in": 8,
            "num_features_in": 264,
            "num_filters_out": 8,
            "padding": "same",
            "weights": [
                [
                    [
                        [
                            [
                                0.022235464304685593,
                                0.12644557654857635,
                                -0.019513731822371483,
                                0.008993071503937244,
                                0.005676493048667908,
                                -0.03184245526790619,
                                -0.003874695161357522,
                                0.0017621004953980446
                            ],
                            [
                                -0.05232696980237961,
                                0.05170194432139397,
                                -0.006704402156174183,
                                0.061710067093372345,
                                -0.003483690321445465,
                                -0.021386953070759773,
                                0.004079383332282305,
                                -0.04041877016425133
                            ],
                            [
                                0.013914952985942364,
                                0.03777508810162544,
                                -0.00270700897090137,
                                0.07291053235530853,
                                0.02247735485434532,
                                -0.013676331378519535,
                                0.0036198899615556,
                                0.01919560693204403
                            ],
                            [
                                0.004582306835800409,
                                -0.025379642844200134,
                                -0.02947649545967579,
                                -0.024576930329203606,
                                0.15691761672496796,
                                -0.02018500491976738,
                                -0.007045423146337271,
                                0.01869312860071659
                            ],
                            [
                                -0.025012051686644554,
                                -0.041520364582538605,
                                0.04374866560101509,
                                -0.03835153579711914,
                                -0.025467531755566597,
                                -0.002976842690259218,
                                -0.008783360943198204,
                                0.060937389731407166
                            ],
                            [
                                0.003583863377571106,
                                -0.02184070274233818,
                                -0.002791644772514701,
                                0.05034444108605385,
                                0.013469302095472813,
                                -0.012055132538080215,
                                -0.006561734713613987,
                                0.006368257571011782
                            ],
                            [
                                -0.016420934349298477,
                                -0.029597068205475807,
                                -0.045799996703863144,
                                -0.023617858067154884,
                                0.0018877382390201092,
                                -0.017183998599648476,
                                -0.0007590560126118362,
                                -0.0063958303071558475
                            ],
                            [
                                -0.037002015858888626,
                                -0.03119487129151821,
                                0.0033363052643835545,
                                -0.05453155189752579,
                                -0.008176961913704872,
                                0.01803756132721901,
                                0.002405173610895872,
                                0.07108523696660995
                            ]
                        ],
                        [
                            [
                                0.015560653991997242,
                                -0.028215713798999786,
                                -0.01019179169088602,
                                -0.006182027980685234,
                                0.042752284556627274,
                                0.00378150655888021,
                                -0.006398215889930725,
                                -0.006785248406231403
                            ],
                            [
                                -0.017630990594625473,
                                0.03120465762913227,
                                0.005011255387216806,
                                0.0847846046090126,
                                -0.007034486159682274,
                                0.004546181298792362,
                                0.003564009442925453,
                                -0.040373120456933975
                            ],
                            [
                                0.03380727767944336,
                                0.00465942919254303,
                                -0.04390568286180496,
                                0.02688531018793583,
                                0.0508088655769825,
                                -0.028628448024392128,
                                -0.0012356945080682635,
                                -0.01194258127361536
                            ],
                            [
                                0.029846712946891785,
                                -0.01329704187810421,
                                -0.019763626158237457,
                                0.07735968381166458,
                                0.1271095722913742,
                                0.02257220260798931,
                                -0.002953483024612069,
                                -0.013235040009021759
                            ],
                            [
                                -0.0010791976237669587,
                                -0.0008485896978527308,
                                0.01629459299147129,
                                0.004993936512619257,
                                -0.0030903357546776533,
                                -0.001869024010375142,
                                0.003238455858081579,
                                0.03629472479224205
                            ],
                            [
                                -0.0013478194596245885,
                                -0.01382285077124834,
                                -0.01214813906699419,
                                0.030711371451616287,
                                0.05905970185995102,
                                0.010752944275736809,
                                0.000265252310782671,
                                -0.023287836462259293
                            ],
                            [
                                -0.0010589660378172994,
                                -0.0281875841319561,
                                -0.018244905397295952,
                                0.06000158190727234,
                                0.06102447956800461,
                                -0.01336828526109457,
                                -0.0006791662890464067,
                                -0.01892756298184395
                            ],
                            [
                                -0.03647073358297348,
                                -0.008094938471913338,
                                -0.0029176692478358746,
                                -0.05202382057905197,
                                0.04304306209087372,
                                0.008528396487236023,
                                0.008362235501408577,
                                -0.04738091677427292
                            ]
                        ],
                        [
                            [
                                -0.016823263838887215,
                                -0.004366897977888584,
                                -0.01823221705853939,
                                -0.037581443786621094,
                                0.02694634348154068,
                                -0.017024731263518333,
                                0.003985974472016096,
                                0.0018107679206877947
                            ],
                            [
                                -0.011843329295516014,
                                0.07504546642303467,
                                -0.01685096137225628,
                                0.012750407680869102,
                                -0.022838294506072998,
                                0.005926860496401787,
                                0.0025199870578944683,
                                -0.0424792654812336
                            ],
                            [
                                0.011060439981520176,
                                0.058556199073791504,
                                -0.019469786435365677,
                                0.036385055631399155,
                                0.013489220291376114,
                                0.0001548125728731975,
                                0.0025923089124262333,
                                -0.004607853014022112
                            ],
                            [
                                0.027755344286561012,
                                0.029301518574357033,
                                0.02607894130051136,
                                -0.0007426803931593895,
                                0.047103673219680786,
                                0.029597340151667595,
                                -0.0028491104021668434,
                                0.03242543712258339
                            ],
                            [
                                -0.01581093668937683,
                                -0.016657091677188873,
                                0.02387949638068676,
                                -0.009551185183227062,
                                -0.08178254216909409,
                                -0.006872786208987236,
                                0.006394826341420412,
                                0.10345522314310074
                            ],
                            [
                                -0.00016978765779640526,
                                -0.025133000686764717,
                                0.01541024912148714,
                                -0.07947726547718048,
                                0.00773949921131134,
                                0.023387834429740906,
                                0.00045220874017104506,
                                0.04416127875447273
                            ],
                            [
                                0.009047816507518291,
                                -0.006677203346043825,
                                0.038462236523628235,
                                -0.05021427571773529,
                                0.031809575855731964,
                                0.004782309755682945,
                                -0.0027064906898885965,
                                -0.008594758808612823
                            ],
                            [
                                -0.013260701671242714,
                                -0.018810201436281204,
                                0.011797698214650154,
                                0.029345015063881874,
                                -0.023170992732048035,
                                0.024784306064248085,
                                0.007895532064139843,
                                -0.018747635185718536
                            ]
                        ],
                        [
                            [
                                0.0057707056403160095,
                                -0.0204930417239666,
                                0.002769286511465907,
                                0.010132224299013615,
                                0.02334810607135296,
                                -0.010387936607003212,
                                -0.0006680868100374937,
                                0.002129195723682642
                            ],
                            [
                                -0.013970589265227318,
                                -0.03278077766299248,
                                0.010115734301507473,
                                0.014573562890291214,
                                0.002545877592638135,
                                -0.0030834111385047436,
                                -0.0009585557272657752,
                                -0.012784413993358612
                            ],
                            [
                                -0.0007548778085038066,
                                -0.06416552513837814,
                                -0.026276277378201485,
                                0.060121145099401474,
                                -0.028378328308463097,
                                -0.05593034252524376,
                                0.0012310013407841325,
                                -0.05229663476347923
                            ],
                            [
                                0.033074457198381424,
                                0.035842038691043854,
                                -0.014351144433021545,
                                0.01621762476861477,
                                0.0057068620808422565,
                                -0.012334870174527168,
                                -0.004315447062253952,
                                -0.010443567298352718
                            ],
                            [
                                -0.03354040905833244,
                                0.022786710411310196,
                                0.02577042579650879,
                                -0.02929891273379326,
                                -0.07407773286104202,
                                0.014297251589596272,
                                0.011030596680939198,
                                0.02959544211626053
                            ],
                            [
                                -0.02282162569463253,
                                -0.005241031292825937,
                                -0.017921118065714836,
                                0.008651603013277054,
                                0.019511127844452858,
                                -0.0030766159761697054,
                                -0.007739419117569923,
                                0.01616954244673252
                            ],
                            [
                                0.0031913078855723143,
                                0.0009484397014603019,
                                -0.03610454872250557,
                                0.03282289579510689,
                                0.003820748534053564,
                                -0.013024115934967995,
                                0.0011526633752509952,
                                -0.03325885906815529
                            ],
                            [
                                0.027511175721883774,
                                0.0029972747433930635,
                                0.00570986932143569,
                                -0.035369873046875,
                                -0.008223328739404678,
                                0.023436594754457474,
                                -0.002204890362918377,
                                0.03487518057227135
                            ]
                        ],
                        [
                            [
                                0.011303921230137348,
                                0.028303783386945724,
                                0.010019144043326378,
                                0.02747066505253315,
                                -0.02193966880440712,
                                0.0018709165742620826,
                                -0.006884337402880192,
                                -0.007487744092941284
                            ],
                            [
                                -0.003547257510945201,
                                -0.0032532508485019207,
                                0.030139915645122528,
                                -0.04061159864068031,
                                -0.015734415501356125,
                                0.015703555196523666,
                                -3.3762673410819843e-05,
                                0.0008010396850295365
                            ],
                            [
                                0.004342515487223864,
                                -0.022638238966464996,
                                4.755840927828103e-05,
                                0.058410074561834335,
                                -0.025339830666780472,
                                -0.04429657384753227,
                                0.007314715534448624,
                                -0.019359422847628593
                            ],
                            [
                                0.026940319687128067,
                                0.04886886477470398,
                                -0.025590738281607628,
                                -0.00377338076941669,
                                0.015572890639305115,
                                -0.018565692007541656,
                                -0.0016691256314516068,
                                -0.03703920915722847
                            ],
                            [
                                -0.04334361478686333,
                                -0.025176821276545525,
                                0.07419151812791824,
                                -0.04973282292485237,
                                -0.07073139399290085,
                                -0.02166164480149746,
                                0.013029152527451515,
                                -0.059011153876781464
                            ],
                            [
                                -0.039386872202157974,
                                0.018117057159543037,
                                -0.00576524855569005,
                                -0.004947022069245577,
                                -0.039579689502716064,
                                0.023693304508924484,
                                0.002464504912495613,
                                0.014489566907286644
                            ],
                            [
                                -0.015139085240662098,
                                0.008358307182788849,
                                -0.024858159944415092,
                                0.018372707068920135,
                                0.03260691836476326,
                                0.020735299214720726,
                                -0.003381146816536784,
                                0.007735520601272583
                            ],
                            [
                                0.00820154044777155,
                                -0.04142729938030243,
                                -0.025799978524446487,
                                -0.02855108678340912,
                                0.03330245614051819,
                                0.0038844163063913584,
                                -0.0030980417504906654,
                                -0.04071376472711563
                            ]
                        ],
                        [
                            [
                                0.007889635860919952,
                                0.04295783489942551,
                                0.0034598747733980417,
                                -0.05868241935968399,
                                0.011131289415061474,
                                -0.011307686567306519,
                                0.0051597352139651775,
                                0.011460067704319954
                            ],
                            [
                                -0.01667891815304756,
                                0.033943142741918564,
                                0.0141826206818223,
                                -0.02169637754559517,
                                0.025603437796235085,
                                0.03426206856966019,
                                -0.0015753483166918159,
                                0.005207948852330446
                            ],
                            [
                                0.010059953667223454,
                                0.002121220575645566,
                                -0.00618642196059227,
                                0.02929786778986454,
                                0.039950180798769,
                                0.008554732427001,
                                -0.0004180255637038499,
                                0.006468053907155991
                            ],
                            [
                                0.010246681980788708,
                                0.02913084626197815,
                                -0.003997581545263529,
                                -0.029581496492028236,
                                0.0448671355843544,
                                -0.027189400047063828,
                                0.005028913728892803,
                                0.03533196076750755
                            ],
                            [
                                0.034569788724184036,
                                0.006752095650881529,
                                -0.0047640735283494,
                                -0.06725426763296127,
                                -0.032103702425956726,
                                0.008698106743395329,
                                -0.00019600741507019848,
                                0.044467389583587646
                            ],
                            [
                                -0.006730103399604559,
                                -0.02291121892631054,
                                -0.007513339165598154,
                                -0.04208074137568474,
                                -0.035711705684661865,
                                0.011442085728049278,
                                -0.0021993762347847223,
                                0.07475803047418594
                            ],
                            [
                                -0.0165804922580719,
                                -0.028416041284799576,
                                0.03870989382266998,
                                -0.03871094807982445,
                                -0.012425223365426064,
                                0.05496881902217865,
                                -0.005223952233791351,
                                0.017976747825741768
                            ],
                            [
                                0.0033240318298339844,
                                -0.018295997753739357,
                                -0.011653776280581951,
                                0.05221997946500778,
                                -0.005206412635743618,
                                -0.010865059681236744,
                                -0.0013333753449842334,
                                -0.03887780383229256
                            ]
                        ],
                        [
                            [
                                0.01299725566059351,
                                -0.009790003299713135,
                                0.010116975754499435,
                                -0.08255843073129654,
                                0.008512875065207481,
                                -0.01789231412112713,
                                -0.003925927449017763,
                                0.006162574049085379
                            ],
                            [
                                -0.0079413540661335,
                                -0.019605783745646477,
                                0.021434606984257698,
                                -0.0029194799717515707,
                                -0.011883272789418697,
                                -0.017675170674920082,
                                0.0019800704903900623,
                                -0.023192845284938812
                            ],
                            [
                                0.03595408424735069,
                                -0.038897547870874405,
                                -0.0005803395179100335,
                                0.025954095646739006,
                                0.02673749066889286,
                                -0.011774351820349693,
                                -0.0026443200185894966,
                                -0.017563695088028908
                            ],
                            [
                                0.009468981996178627,
                                0.004766495898365974,
                                -0.012855788692831993,
                                -0.02593761868774891,
                                0.04314328730106354,
                                -0.037367526441812515,
                                0.00533562246710062,
                                -0.031118465587496758
                            ],
                            [
                                0.00359335052780807,
                                -0.07114684581756592,
                                -0.0770656168460846,
                                -0.007933095097541809,
                                0.05640508607029915,
                                -0.023698067292571068,
                                -0.0034948838874697685,
                                -0.011824805289506912
                            ],
                            [
                                -0.007358294911682606,
                                0.0057081240229308605,
                                -0.008933493867516518,
                                0.08766347914934158,
                                -0.015428909100592136,
                                0.019965684041380882,
                                0.004400032572448254,
                                -0.00037128786789253354
                            ],
                            [
                                0.013578114099800587,
                                -0.011762567795813084,
                                -0.004543669056147337,
                                0.024814430624246597,
                                -0.03604408726096153,
                                -0.012372205033898354,
                                -0.0006603982183150947,
                                0.010370751842856407
                            ],
                            [
                                0.018318068236112595,
                                -0.0069355713203549385,
                                0.020939422771334648,
                                -0.02170470543205738,
                                -0.001145902439020574,
                                0.010214881040155888,
                                -0.007656617555767298,
                                0.01514099445194006
                            ]
                        ],
                        [
                            [
                                -0.02564692497253418,
                                -0.0009123572381213307,
                                0.024494672194123268,
                                -0.0028341023717075586,
                                -0.03667068108916283,
                                0.0023433479946106672,
                                -0.0034248409792780876,
                                0.013042906299233437
                            ],
                            [
                                -0.017497530207037926,
                                -0.02337179332971573,
                                0.009679537266492844,
                                0.01005761232227087,
                                -0.02555718459188938,
                                0.024409744888544083,
                                -0.006808471865952015,
                                0.0022560455836355686
                            ],
                            [
                                0.044981662184000015,
                                0.0038882421795278788,
                                0.006299558561295271,
                                -0.004904119297862053,
                                -0.012430408969521523,
                                0.019306616857647896,
                                -0.0014685897622257471,
                                -0.047424767166376114
                            ],
                            [
                                -0.00535705778747797,
                                0.04303525388240814,
                                -0.01672915555536747,
                                0.013650781475007534,
                                0.01971958577632904,
                                -0.02712901122868061,
                                0.0031558817718178034,
                                -0.09046825021505356
                            ],
                            [
                                -0.003289637388661504,
                                -0.02178281731903553,
                                -0.06271251291036606,
                                0.04729741811752319,
                                0.013853282667696476,
                                -0.00492807338014245,
                                -0.0020696590654551983,
                                -0.04912311211228371
                            ],
                            [
                                9.613043221179396e-05,
                                -0.008868562988936901,
                                0.04326125234365463,
                                0.052340563386678696,
                                0.027305399999022484,
                                -0.01956017315387726,
                                0.005736886989325285,
                                -0.047495901584625244
                            ],
                            [
                                0.006131057161837816,
                                0.034303441643714905,
                                -0.0021111066453158855,
                                0.034056104719638824,
                                -0.014085622504353523,
                                0.02447618544101715,
                                -0.0025021263863891363,
                                0.06804835051298141
                            ],
                            [
                                -0.025150826200842857,
                                -0.024552443996071815,
                                -0.007870230823755264,
                                -0.008334384299814701,
                                0.004533487372100353,
                                -0.01332863699644804,
                                -0.0066953375935554504,
                                0.009205751121044159
                            ]
                        ],
                        [
                            [
                                -0.006551462225615978,
                                0.011475191451609135,
                                -0.02238963358104229,
                                -0.05396297946572304,
                                -0.030397789552807808,
                                -0.018702758476138115,
                                -0.0031281281262636185,
                                0.0005271499394439161
                            ],
                            [
                                -0.01701163686811924,
                                0.0008293474675156176,
                                -0.00015612051356583834,
                                -0.0791376382112503,
                                -0.006719175260514021,
                                0.018299249932169914,
                                0.00018336280481889844,
                                -0.003697182983160019
                            ],
                            [
                                -0.017391664907336235,
                                -0.0120485695078969,
                                0.041576217859983444,
                                -0.0493382103741169,
                                0.013750803656876087,
                                -0.0041121309623122215,
                                -0.0033255063463002443,
                                0.018538927659392357
                            ],
                            [
                                0.00025515182642266154,
                                0.0345531702041626,
                                -0.012106959708034992,
                                0.006450527347624302,
                                -0.029608644545078278,
                                -0.02260645292699337,
                                0.007478002924472094,
                                -0.004361065104603767
                            ],
                            [
                                0.015987124294042587,
                                0.011847319081425667,
                                0.019011301919817924,
                                -0.020751236006617546,
                                0.019520243629813194,
                                0.002644637832418084,
                                -0.00025139813078567386,
                                0.0424727201461792
                            ],
                            [
                                0.027873557060956955,
                                0.006367124617099762,
                                0.030444661155343056,
                                0.022303221747279167,
                                0.010554761625826359,
                                0.0338013619184494,
                                0.00545452069491148,
                                0.025910882279276848
                            ],
                            [
                                -0.027791636064648628,
                                -0.017398007214069366,
                                0.035113804042339325,
                                -0.0086144944652915,
                                -0.01999053731560707,
                                0.004517904948443174,
                                -0.0020812894217669964,
                                0.05898110941052437
                            ],
                            [
                                -0.0097757987678051,
                                -0.03094254434108734,
                                -0.013558193109929562,
                                -0.053676143288612366,
                                0.012116537429392338,
                                0.008779252879321575,
                                0.001232703449204564,
                                0.027316709980368614
                            ]
                        ],
                        [
                            [
                                -0.019064312800765038,
                                -0.032102763652801514,
                                -0.023698074743151665,
                                0.026869015768170357,
                                -0.007107054814696312,
                                -0.01686258055269718,
                                5.602967576123774e-05,
                                -0.0034729645121842623
                            ],
                            [
                                -0.039511580020189285,
                                -0.03923137113451958,
                                -0.029749397188425064,
                                0.043385181576013565,
                                -0.010539100505411625,
                                -0.011326381005346775,
                                0.004066178109496832,
                                -0.02529854327440262
                            ],
                            [
                                -0.024141840636730194,
                                -0.03681115433573723,
                                -0.017411483451724052,
                                0.004290698561817408,
                                0.07484297454357147,
                                -0.04703889042139053,
                                0.002497951267287135,
                                -0.016598807647824287
                            ],
                            [
                                0.030259234830737114,
                                -0.05595444142818451,
                                0.03314133733510971,
                                0.04178731143474579,
                                -0.0014475437346845865,
                                -0.023959040641784668,
                                0.006222892086952925,
                                -0.003452085889875889
                            ],
                            [
                                0.031579796224832535,
                                -0.019805708900094032,
                                -0.04957373067736626,
                                0.0216908548027277,
                                0.01818738505244255,
                                -0.004228613805025816,
                                -0.0005087238387204707,
                                -0.04097728058695793
                            ],
                            [
                                0.021468600258231163,
                                -0.029785161837935448,
                                -0.04685544967651367,
                                -0.004856846295297146,
                                -0.001649131765589118,
                                -0.02552623301744461,
                                -0.003429814474657178,
                                -0.01705152913928032
                            ],
                            [
                                -0.02311214990913868,
                                0.00046091637341305614,
                                0.02002202719449997,
                                -0.04629921540617943,
                                -0.05296372249722481,
                                0.0029424650128930807,
                                0.006842109840363264,
                                -0.0407988615334034
                            ],
                            [
                                0.0023608580231666565,
                                -0.0180065780878067,
                                -0.00627207662910223,
                                -0.0013127799611538649,
                                -0.009018034674227238,
                                0.005110245198011398,
                                0.003237388329580426,
                                0.0329466387629509
                            ]
                        ],
                        [
                            [
                                -0.01835530623793602,
                                -0.008089987561106682,
                                0.003993176855146885,
                                0.04339226707816124,
                                -0.031178642064332962,
                                -0.028623133897781372,
                                0.0012194417649880052,
                                0.005541378632187843
                            ],
                            [
                                -0.012605872005224228,
                                -0.030721288174390793,
                                -0.017791898921132088,
                                -0.02779308892786503,
                                -0.023006007075309753,
                                0.025875940918922424,
                                0.0005424357368610799,
                                -0.023963844403624535
                            ],
                            [
                                -0.0084352046251297,
                                0.06838401407003403,
                                -0.04183843731880188,
                                0.09145063161849976,
                                -0.004947497975081205,
                                -0.0034526053350418806,
                                0.0006924367626197636,
                                -0.04278752580285072
                            ],
                            [
                                0.0008905791328288615,
                                -0.003864163998514414,
                                0.017941966652870178,
                                0.034392647445201874,
                                -0.028962289914488792,
                                -0.02011922374367714,
                                0.006482762284576893,
                                -0.03312624245882034
                            ],
                            [
                                0.003818195080384612,
                                -0.010422424413263798,
                                -0.07099077850580215,
                                0.024606801569461823,
                                -0.03701210394501686,
                                0.00016984976537059993,
                                0.0009947471553459764,
                                -0.09914976358413696
                            ],
                            [
                                0.029687054455280304,
                                -0.016776321455836296,
                                -0.03506264090538025,
                                0.04352445900440216,
                                0.020676666870713234,
                                -0.033677052706480026,
                                0.000619731203187257,
                                -0.006308916490525007
                            ],
                            [
                                0.0007058251067064703,
                                -0.007873846217989922,
                                0.010244021192193031,
                                -0.020188527181744576,
                                0.029879268258810043,
                                -0.007714883890002966,
                                0.004534406587481499,
                                0.0005578184500336647
                            ],
                            [
                                0.007710936013609171,
                                0.02216540463268757,
                                -0.030730951577425003,
                                0.041000768542289734,
                                -0.037250541150569916,
                                -0.012742152437567711,
                                0.003823777660727501,
                                -0.00740682240575552
                            ]
                        ],
                        [
                            [
                                -0.00702858017757535,
                                0.005512475501745939,
                                -0.0235478263348341,
                                0.02965281344950199,
                                -0.013506203889846802,
                                -0.012077094055712223,
                                0.0023321250919252634,
                                0.010860583744943142
                            ],
                            [
                                -0.013708779588341713,
                                0.00023421405057888478,
                                0.00047265092143788934,
                                -0.011336290277540684,
                                -0.0059189763851463795,
                                0.03353799507021904,
                                -0.004360864404588938,
                                0.00639130687341094
                            ],
                            [
                                8.224845805671066e-05,
                                0.03043152019381523,
                                0.026983879506587982,
                                -0.02216101810336113,
                                -0.02136177383363247,
                                0.020617762580513954,
                                -0.0012498976429924369,
                                0.02961159497499466
                            ],
                            [
                                0.008031469769775867,
                                -0.018099892884492874,
                                0.023884059861302376,
                                -0.08260664343833923,
                                0.0811632052063942,
                                0.011863232590258121,
                                0.0011160110589116812,
                                0.025238581001758575
                            ],
                            [
                                0.0017406046390533447,
                                -0.004376810975372791,
                                -0.019079366698861122,
                                -0.03884325921535492,
                                0.01838478073477745,
                                -0.04414737597107887,
                                0.0007696285028941929,
                                0.007262398488819599
                            ],
                            [
                                0.027545688673853874,
                                0.023495176807045937,
                                0.028669534251093864,
                                0.01729307696223259,
                                0.015200896188616753,
                                -0.007549470756202936,
                                -0.0002313519362360239,
                                0.019949685782194138
                            ],
                            [
                                0.0383465401828289,
                                -0.015054803341627121,
                                0.0026421938091516495,
                                -0.0036642730701714754,
                                0.03461287543177605,
                                0.008846827782690525,
                                -0.002388979075476527,
                                0.02814342826604843
                            ],
                            [
                                0.003012412926182151,
                                -0.02310941554605961,
                                0.04856410622596741,
                                0.020769763737916946,
                                -0.03782738372683525,
                                0.0015737027861177921,
                                0.0017553620273247361,
                                -0.005003652535378933
                            ]
                        ],
                        [
                            [
                                0.0028403110336512327,
                                -0.0267125703394413,
                                -0.020615002140402794,
                                -0.003283717203885317,
                                -0.009698173962533474,
                                -0.030504990369081497,
                                0.005806685891002417,
                                -0.006075989920645952
                            ],
                            [
                                -0.007253296207636595,
                                -0.04015545919537544,
                                0.027508161962032318,
                                -0.015199803747236729,
                                -0.05051993578672409,
                                -0.004159131553024054,
                                0.004413182381540537,
                                0.01836898922920227
                            ],
                            [
                                -0.026632076129317284,
                                -0.07041507959365845,
                                0.026808811351656914,
                                -0.016850048676133156,
                                -0.00822350475937128,
                                0.0030515454709529877,
                                0.0005790474824607372,
                                -0.020466642454266548
                            ],
                            [
                                0.0018812237540259957,
                                -0.002007627161219716,
                                0.011842492036521435,
                                -0.04964768514037132,
                                0.07358335703611374,
                                -0.016321491450071335,
                                -0.008585081435739994,
                                -0.03084101527929306
                            ],
                            [
                                0.005681124981492758,
                                -0.024501711130142212,
                                0.015316341072320938,
                                0.03402228280901909,
                                0.01711939461529255,
                                -0.00587298022583127,
                                -0.00042709027184173465,
                                0.019185518845915794
                            ],
                            [
                                0.01424433570355177,
                                0.019934706389904022,
                                -0.02005893550813198,
                                -0.0025457541923969984,
                                0.007962919771671295,
                                -0.043680839240550995,
                                -0.0009455169201828539,
                                -0.017988944426178932
                            ],
                            [
                                0.02490965835750103,
                                -0.0461127944290638,
                                -0.028151394799351692,
                                -0.022954236716032028,
                                -0.010462426580488682,
                                -0.00955620501190424,
                                -0.001648438978008926,
                                -0.024530455470085144
                            ],
                            [
                                0.04222862049937248,
                                -0.021635083481669426,
                                0.0189148411154747,
                                -0.01998710259795189,
                                -0.014566706493496895,
                                0.01279832236468792,
                                -0.004455898888409138,
                                0.007094039581716061
                            ]
                        ],
                        [
                            [
                                -0.005113836843520403,
                                -0.03684377297759056,
                                -0.0056229704059660435,
                                0.031198887154459953,
                                -0.030521210283041,
                                -0.019159968942403793,
                                0.0024523038882762194,
                                -0.00649395352229476
                            ],
                            [
                                -0.013492259196937084,
                                -0.004579652566462755,
                                -0.0036230687983334064,
                                0.0361771360039711,
                                -0.07502341270446777,
                                0.0427078977227211,
                                -0.008125923573970795,
                                0.025255661457777023
                            ],
                            [
                                0.008091756142675877,
                                -0.0062435343861579895,
                                0.0002125377650372684,
                                0.03751135617494583,
                                -0.06228489428758621,
                                0.017414934933185577,
                                -0.0024647319223731756,
                                -0.03216655179858208
                            ],
                            [
                                0.0014933438505977392,
                                0.03805873915553093,
                                -0.012956496328115463,
                                0.05355922132730484,
                                -0.007566344924271107,
                                -0.0023036671336740255,
                                0.0013013840653002262,
                                -0.040997155010700226
                            ],
                            [
                                0.00970747321844101,
                                0.008139340206980705,
                                0.007930705323815346,
                                -0.0058319540694355965,
                                -0.027623048052191734,
                                -0.004362271632999182,
                                0.0018949653021991253,
                                -0.010745068080723286
                            ],
                            [
                                0.009179162792861462,
                                0.014367690309882164,
                                -0.018432362005114555,
                                -0.009120112285017967,
                                -0.0010850197868421674,
                                -0.014168069697916508,
                                0.0014544581063091755,
                                -0.0019432518165558577
                            ],
                            [
                                0.012165888212621212,
                                0.014038724824786186,
                                -0.005503388121724129,
                                0.06495963037014008,
                                0.014887501485645771,
                                -0.011752082966268063,
                                0.001974117709323764,
                                -0.0365934818983078
                            ],
                            [
                                0.018843118101358414,
                                -0.03378033638000488,
                                -0.06614726036787033,
                                -0.03885936364531517,
                                -0.016586733981966972,
                                0.004830543417483568,
                                -0.0008090520277619362,
                                -0.02722693793475628
                            ]
                        ],
                        [
                            [
                                0.011096267029643059,
                                0.002463543089106679,
                                -0.03369567543268204,
                                0.025326287373900414,
                                -0.017030129209160805,
                                -0.025938833132386208,
                                -0.0005355315515771508,
                                -0.002528565935790539
                            ],
                            [
                                -0.07193358987569809,
                                0.04789124056696892,
                                0.03699028864502907,
                                0.016608674079179764,
                                -0.05257345736026764,
                                0.04768119379878044,
                                -0.003883429802954197,
                                0.07116680592298508
                            ],
                            [
                                -0.021404290571808815,
                                0.04720957577228546,
                                0.03245756775140762,
                                -0.018813764676451683,
                                -0.0671902447938919,
                                0.0338742733001709,
                                0.002387960208579898,
                                0.07454796135425568
                            ],
                            [
                                -0.0008500116528011858,
                                -0.011500389315187931,
                                -0.0018730086740106344,
                                0.024664754047989845,
                                0.02834327705204487,
                                0.02641095593571663,
                                -0.00326456013135612,
                                0.015561754815280437
                            ],
                            [
                                0.02743368037045002,
                                -0.013530661351978779,
                                0.021766429767012596,
                                -0.041475217789411545,
                                0.05833788216114044,
                                0.0037718508392572403,
                                -0.0006826737080700696,
                                0.018615471199154854
                            ],
                            [
                                0.009515209123492241,
                                -0.02395343966782093,
                                0.028370752930641174,
                                -0.05109116807579994,
                                0.04538363218307495,
                                -0.010927025228738785,
                                -0.0038037593476474285,
                                -0.007539236918091774
                            ],
                            [
                                0.017294980585575104,
                                0.022014044225215912,
                                0.024777600541710854,
                                -0.021518561989068985,
                                0.05194985121488571,
                                0.0011628282954916358,
                                -0.0026660540606826544,
                                -0.008232304826378822
                            ],
                            [
                                -0.02059284597635269,
                                -0.008858388289809227,
                                -0.04237817972898483,
                                0.08289200067520142,
                                0.017494162544608116,
                                -0.0339827835559845,
                                -0.00645774370059371,
                                -0.036064475774765015
                            ]
                        ],
                        [
                            [
                                -0.0017936640651896596,
                                -0.024200834333896637,
                                -0.05882785841822624,
                                0.0011657659197226167,
                                -0.010709168389439583,
                                -0.018474487587809563,
                                0.005439652595669031,
                                -0.04056774079799652
                            ],
                            [
                                0.04473930224776268,
                                -0.029290365055203438,
                                0.07042510062456131,
                                -0.016189919784665108,
                                -0.10109858959913254,
                                0.019782941788434982,
                                -0.005963423755019903,
                                0.008998609147965908
                            ],
                            [
                                -0.04267789050936699,
                                -0.004337817896157503,
                                0.029328102245926857,
                                0.03771814703941345,
                                -0.09369296580553055,
                                -0.010162025690078735,
                                -0.0017721661133691669,
                                0.06113213673233986
                            ],
                            [
                                -0.007319124415516853,
                                -0.0230509452521801,
                                0.014186984859406948,
                                0.024228116497397423,
                                0.029913710430264473,
                                -0.037697162479162216,
                                0.002515278523787856,
                                0.026720639318227768
                            ],
                            [
                                -0.025196591392159462,
                                0.025278287008404732,
                                -0.014730632305145264,
                                0.01803640089929104,
                                0.0659201368689537,
                                -0.021524703130126,
                                -0.0030718576163053513,
                                -0.0018939422443509102
                            ],
                            [
                                0.025813410058617592,
                                0.004824167583137751,
                                0.0013664207654073834,
                                0.032371409237384796,
                                0.04336687922477722,
                                -0.02109353430569172,
                                -0.0016540114302188158,
                                0.0020546591840684414
                            ],
                            [
                                -0.004435519687831402,
                                -0.005118674132972956,
                                -0.010773041285574436,
                                0.019072482362389565,
                                0.009197943843901157,
                                -0.0033990442752838135,
                                -0.007563642226159573,
                                0.011976007372140884
                            ],
                            [
                                0.03284922242164612,
                                0.01039752084761858,
                                0.006667858920991421,
                                -0.0034051823895424604,
                                0.03333090618252754,
                                -0.031377729028463364,
                                -0.003084589494392276,
                                0.024296998977661133
                            ]
                        ],
                        [
                            [
                                0.030148455873131752,
                                -0.00864435639232397,
                                -0.05375289544463158,
                                -0.014680670574307442,
                                -0.020796896889805794,
                                -0.010513050481677055,
                                -0.0016474747098982334,
                                -0.06651037931442261
                            ],
                            [
                                0.09882839769124985,
                                0.02703351341187954,
                                0.1489020735025406,
                                -0.08214478939771652,
                                -0.10652537643909454,
                                0.07616814970970154,
                                0.0035422558430582285,
                                0.12067253887653351
                            ],
                            [
                                -0.00834409799426794,
                                0.031742554157972336,
                                0.018161652609705925,
                                -0.03539811447262764,
                                -0.08460931479930878,
                                0.03173321112990379,
                                -0.0017724111676216125,
                                0.10564067959785461
                            ],
                            [
                                0.02007751353085041,
                                0.0284567903727293,
                                0.015325553715229034,
                                0.05747886374592781,
                                -0.025592749938368797,
                                -0.0034981160424649715,
                                0.010967481881380081,
                                -0.003012916771695018
                            ],
                            [
                                -0.03078330121934414,
                                0.014911814592778683,
                                0.0014165197499096394,
                                0.027587739750742912,
                                0.02573663927614689,
                                0.019114622846245766,
                                0.0007500678184442222,
                                -0.006231146864593029
                            ],
                            [
                                0.030661262571811676,
                                0.023174811154603958,
                                0.0031534628942608833,
                                0.015078706666827202,
                                0.021301664412021637,
                                -0.023839561268687248,
                                0.005871518049389124,
                                0.042406920343637466
                            ],
                            [
                                -0.02105780318379402,
                                -0.028779448941349983,
                                -0.025709429755806923,
                                -0.0004717730334959924,
                                0.018080782145261765,
                                -0.0354524701833725,
                                0.006008810829371214,
                                -0.007720983121544123
                            ],
                            [
                                0.05429144576191902,
                                -0.008666365407407284,
                                -0.03551860526204109,
                                0.009427406825125217,
                                0.02285725623369217,
                                -0.017079509794712067,
                                0.00026889072614721954,
                                0.02496388368308544
                            ]
                        ],
                        [
                            [
                                0.02781885489821434,
                                0.0018768343143165112,
                                -0.039836522191762924,
                                -0.021861424669623375,
                                -0.023211324587464333,
                                -0.006453522946685553,
                                0.004141750745475292,
                                -0.09007439017295837
                            ],
                            [
                                0.004982838407158852,
                                0.007989739067852497,
                                0.08537696301937103,
                                -0.13103286921977997,
                                -0.13559892773628235,
                                -0.0731678158044815,
                                0.0013012838317081332,
                                0.15000535547733307
                            ],
                            [
                                -0.038516364991664886,
                                -0.03565213829278946,
                                0.0013591994065791368,
                                -0.0613744743168354,
                                -0.05812767520546913,
                                -0.042250294238328934,
                                0.007330593187361956,
                                0.14563700556755066
                            ],
                            [
                                0.0051372176967561245,
                                -0.005017885006964207,
                                -0.011037653312087059,
                                -0.06429912894964218,
                                -0.010301020927727222,
                                -0.014054377563297749,
                                0.013740983791649342,
                                0.0676840990781784
                            ],
                            [
                                -0.014096032828092575,
                                -0.025397853925824165,
                                -0.0049273185431957245,
                                -0.04990721866488457,
                                0.00751075753942132,
                                -0.010869694873690605,
                                -0.001473587704822421,
                                0.05941850319504738
                            ],
                            [
                                -0.028614502400159836,
                                -0.0038576717488467693,
                                0.02520683966577053,
                                -0.04103272035717964,
                                0.028035597875714302,
                                0.0010174746857956052,
                                -0.002698564203456044,
                                0.05821256712079048
                            ],
                            [
                                -0.0054826391860842705,
                                0.0010778383584693074,
                                -0.026636548340320587,
                                -0.014158876612782478,
                                0.03178582713007927,
                                0.01879614032804966,
                                0.0029575773514807224,
                                0.021603316068649292
                            ],
                            [
                                -0.004924132954329252,
                                -0.04520997032523155,
                                -0.02424447610974312,
                                -0.025678567588329315,
                                0.03774625062942505,
                                -0.023272186517715454,
                                -0.001842218916863203,
                                0.06028072163462639
                            ]
                        ],
                        [
                            [
                                0.029509631916880608,
                                -0.04376767948269844,
                                -0.03909436613321304,
                                0.017614202573895454,
                                -0.06183529645204544,
                                -0.07199552655220032,
                                -0.00214286963455379,
                                -0.03633756935596466
                            ],
                            [
                                -0.10305291414260864,
                                -0.04953385889530182,
                                0.05717933177947998,
                                0.012080973945558071,
                                -0.0004232772043906152,
                                -0.09002150595188141,
                                0.020243467763066292,
                                0.21153853833675385
                            ],
                            [
                                -0.01754043810069561,
                                -0.035948626697063446,
                                0.013262792490422726,
                                0.16174878180027008,
                                -0.0063409884460270405,
                                -0.0566931888461113,
                                0.013227841816842556,
                                0.06371674686670303
                            ],
                            [
                                -0.0080918213352561,
                                0.015424764715135098,
                                0.010038774460554123,
                                -0.061069078743457794,
                                -0.040020279586315155,
                                -0.027921613305807114,
                                0.018687346950173378,
                                0.018717996776103973
                            ],
                            [
                                0.0190231092274189,
                                0.00783687923103571,
                                -0.04061852768063545,
                                0.05273864045739174,
                                0.052126362919807434,
                                -0.02657187543809414,
                                0.004607892595231533,
                                -0.0033029878977686167
                            ],
                            [
                                -0.0023713347036391497,
                                -0.007307725492864847,
                                0.014031074941158295,
                                -0.020980075001716614,
                                0.03876960650086403,
                                -0.014204996638000011,
                                0.009711461141705513,
                                -0.04195787012577057
                            ],
                            [
                                0.018701979890465736,
                                0.010566899552941322,
                                -0.027094673365354538,
                                0.08134369552135468,
                                -0.002072785748168826,
                                -0.028376508504152298,
                                0.001953767379745841,
                                -0.03422284871339798
                            ],
                            [
                                -0.03244802728295326,
                                0.01013082917779684,
                                0.03250707685947418,
                                0.009358251467347145,
                                0.025600580498576164,
                                -0.02044057846069336,
                                -0.0010542672825977206,
                                0.02102203108370304
                            ]
                        ],
                        [
                            [
                                0.017321303486824036,
                                -0.06413477659225464,
                                -0.06115972250699997,
                                0.07949606329202652,
                                -0.04986269026994705,
                                -0.04505620896816254,
                                0.0033408210147172213,
                                -0.014890485443174839
                            ],
                            [
                                -0.09125269949436188,
                                0.07736203074455261,
                                0.12280024588108063,
                                -0.023846304044127464,
                                0.07942315191030502,
                                -0.11308924853801727,
                                0.017987091094255447,
                                0.025294525548815727
                            ],
                            [
                                -0.032439056783914566,
                                0.006084774620831013,
                                0.08589301258325577,
                                0.10457293689250946,
                                0.05005994439125061,
                                -0.07591217756271362,
                                0.011012163944542408,
                                -0.08709149062633514
                            ],
                            [
                                -0.03284597396850586,
                                -0.030422713607549667,
                                0.06616276502609253,
                                -0.08815494179725647,
                                -0.04062599316239357,
                                -0.03463836386799812,
                                0.008589544333517551,
                                -0.06664149463176727
                            ],
                            [
                                -0.030295437201857567,
                                -0.02442793734371662,
                                0.016200607642531395,
                                0.03640361502766609,
                                -0.02871651016175747,
                                -0.02055424451828003,
                                0.006568847224116325,
                                -0.04611688107252121
                            ],
                            [
                                0.026517800986766815,
                                -0.01577404886484146,
                                0.006866747979074717,
                                0.02734300121665001,
                                -0.008837216533720493,
                                -0.006769601721316576,
                                0.002073135692626238,
                                -0.020781852304935455
                            ],
                            [
                                0.007285844534635544,
                                -0.016439635306596756,
                                0.018294548615813255,
                                0.05914950370788574,
                                -0.009468656964600086,
                                -0.0120975561439991,
                                0.007334298919886351,
                                -0.007756736595183611
                            ],
                            [
                                0.003266588319092989,
                                0.01356316264718771,
                                0.033725738525390625,
                                -0.0968233123421669,
                                0.02488594688475132,
                                0.01387367770075798,
                                0.004182963166385889,
                                -0.07827442139387131
                            ]
                        ],
                        [
                            [
                                -0.009028857573866844,
                                -0.040097612887620926,
                                -0.03335530683398247,
                                0.031098786741495132,
                                -0.021318964660167694,
                                -0.035973504185676575,
                                0.0021352949552237988,
                                -0.0055869463831186295
                            ],
                            [
                                -0.005789934657514095,
                                0.16319429874420166,
                                0.039049241691827774,
                                -0.08754780888557434,
                                0.18935982882976532,
                                0.07485946267843246,
                                0.006714486982673407,
                                0.0617864727973938
                            ],
                            [
                                0.013323400169610977,
                                0.08019065111875534,
                                0.035635583102703094,
                                0.026099583134055138,
                                0.1721264123916626,
                                0.050172895193099976,
                                0.01221743505448103,
                                0.057247281074523926
                            ],
                            [
                                0.015249219723045826,
                                -0.01818089559674263,
                                -0.02721533179283142,
                                -0.056658387184143066,
                                0.007047994993627071,
                                0.01845673657953739,
                                0.004721953067928553,
                                0.020323367789387703
                            ],
                            [
                                0.04382536560297012,
                                -0.019859984517097473,
                                0.02667899988591671,
                                0.034443777054548264,
                                0.0021962022874504328,
                                0.02478097751736641,
                                -0.0013193802442401648,
                                0.0012128957314416766
                            ],
                            [
                                0.037114907056093216,
                                -0.003309066640213132,
                                0.005320486146956682,
                                -0.016965962946414948,
                                -0.026465080678462982,
                                0.010018556378781796,
                                -0.0021883987355977297,
                                0.01813485473394394
                            ],
                            [
                                0.0456928014755249,
                                -0.011669783852994442,
                                0.03657731041312218,
                                -0.01745733991265297,
                                -0.016790242865681648,
                                0.02742769941687584,
                                0.002379809506237507,
                                -0.004307745024561882
                            ],
                            [
                                0.02736145816743374,
                                -0.007712895516306162,
                                -0.024750081822276115,
                                0.02780979312956333,
                                0.003106111893430352,
                                0.003955588676035404,
                                -0.0009938975563272834,
                                0.022406823933124542
                            ]
                        ],
                        [
                            [
                                0.006007181014865637,
                                -0.0793798640370369,
                                -0.022004736587405205,
                                0.008776436559855938,
                                -0.006154397968202829,
                                -0.04735204204916954,
                                0.003014405956491828,
                                0.009456072002649307
                            ],
                            [
                                -0.042650096118450165,
                                -0.008920791558921337,
                                -0.04360422119498253,
                                -0.18445822596549988,
                                0.24962477385997772,
                                -0.00669131800532341,
                                -0.0015378016978502274,
                                0.054153140634298325
                            ],
                            [
                                -0.029509099200367928,
                                -0.024571465328335762,
                                -0.03434547409415245,
                                -0.07986897975206375,
                                0.027085190638899803,
                                0.002260953886434436,
                                -0.0012798354728147388,
                                -0.026897847652435303
                            ],
                            [
                                -0.00754946144297719,
                                -0.054637376219034195,
                                -0.08165226876735687,
                                -0.032315075397491455,
                                0.04462827369570732,
                                -0.013978929258883,
                                0.0009115959401242435,
                                -0.03236134722828865
                            ],
                            [
                                0.012475861236453056,
                                -0.033302903175354004,
                                -0.046690307557582855,
                                -0.019278699532151222,
                                -0.005517739336937666,
                                -0.011918489821255207,
                                -0.0002506935561541468,
                                -0.029432734474539757
                            ],
                            [
                                0.019501391798257828,
                                -0.03485596179962158,
                                -0.035716526210308075,
                                0.02229304611682892,
                                -0.02720843069255352,
                                -0.009777804836630821,
                                -0.005110834259539843,
                                -0.03685935214161873
                            ],
                            [
                                0.0030816690996289253,
                                -0.0034131009597331285,
                                -0.03789491206407547,
                                -0.06813221424818039,
                                -0.04504116624593735,
                                -0.009426170960068703,
                                -0.004116535652428865,
                                -0.019848033785820007
                            ],
                            [
                                0.026778437197208405,
                                -0.033035676926374435,
                                -0.012619122862815857,
                                -0.04743068665266037,
                                0.003595219226554036,
                                -0.007447108160704374,
                                -0.007843850180506706,
                                -0.0039643398486077785
                            ]
                        ],
                        [
                            [
                                -0.0035392900463193655,
                                -0.005088335834443569,
                                -0.013706156983971596,
                                0.04689578339457512,
                                0.0019225148716941476,
                                -0.015270467847585678,
                                0.0030583860352635384,
                                -0.004154577851295471
                            ],
                            [
                                0.04130914434790611,
                                -0.09355935454368591,
                                -0.08720480650663376,
                                0.08506705611944199,
                                0.1390412598848343,
                                0.02402966283261776,
                                0.0016013052081689239,
                                0.010080354288220406
                            ],
                            [
                                -0.00943001452833414,
                                -0.030709968879818916,
                                -0.045670416206121445,
                                0.033716700971126556,
                                -0.03822609409689903,
                                0.02853790670633316,
                                -0.0007508274866268039,
                                -0.041246719658374786
                            ],
                            [
                                0.0010999365476891398,
                                0.007578269578516483,
                                -0.051765259355306625,
                                0.09290412068367004,
                                0.02115662954747677,
                                -0.0027912924997508526,
                                0.0006841446156613529,
                                -0.06701391190290451
                            ],
                            [
                                0.007051353342831135,
                                0.0073605007492005825,
                                -0.026751937344670296,
                                0.037574686110019684,
                                -0.02326788194477558,
                                -0.010569948703050613,
                                0.002994181588292122,
                                -0.01891464740037918
                            ],
                            [
                                -0.011359039694070816,
                                0.0010105830151587725,
                                -0.0070452215149998665,
                                -0.001919457339681685,
                                -0.005338813178241253,
                                -0.02818641997873783,
                                -0.0017427279381081462,
                                -0.042424026876688004
                            ],
                            [
                                -0.016179488971829414,
                                -0.005342352669686079,
                                -0.028760675340890884,
                                0.0002650187525432557,
                                -0.02017773501574993,
                                -0.02394545078277588,
                                -0.0014888664009049535,
                                -0.020623493939638138
                            ],
                            [
                                0.010845501907169819,
                                -0.03710756078362465,
                                -0.04581858962774277,
                                0.0009257964557036757,
                                -0.05303311347961426,
                                -0.012522363103926182,
                                0.002940493170171976,
                                0.0012283353134989738
                            ]
                        ],
                        [
                            [
                                -0.01361575722694397,
                                0.001788036897778511,
                                -0.008100580424070358,
                                -0.032479602843523026,
                                0.0002521513670217246,
                                -0.017857279628515244,
                                -0.0006145825027488172,
                                -0.007156998384743929
                            ],
                            [
                                -0.009482594206929207,
                                0.03651123121380806,
                                -0.0007460868218913674,
                                -0.09659106284379959,
                                0.09153319150209427,
                                0.04600735008716583,
                                -0.006763688288629055,
                                0.01022733561694622
                            ],
                            [
                                -0.008568613789975643,
                                0.019808340817689896,
                                0.031919874250888824,
                                -0.08951947093009949,
                                -0.02277739904820919,
                                0.021183816716074944,
                                0.001014410168863833,
                                -0.004451190121471882
                            ],
                            [
                                0.016587965190410614,
                                0.03938861936330795,
                                0.03249772638082504,
                                0.01705648936331272,
                                0.023173844441771507,
                                -0.0032108186278492212,
                                -0.0023149875923991203,
                                0.018422551453113556
                            ],
                            [
                                0.004334042780101299,
                                0.02475845254957676,
                                0.03137379139661789,
                                -0.05592537671327591,
                                0.004248801153153181,
                                0.002905499655753374,
                                0.0012183854123577476,
                                -0.00802667997777462
                            ],
                            [
                                0.024244964122772217,
                                0.007999448105692863,
                                0.030570337548851967,
                                -0.051721133291721344,
                                0.04026414453983307,
                                -0.01367291808128357,
                                0.0007309718057513237,
                                0.025082049891352654
                            ],
                            [
                                0.017571832984685898,
                                0.042426206171512604,
                                0.0202243123203516,
                                0.04903385788202286,
                                0.010459869168698788,
                                -0.017010398209095,
                                0.0021308534778654575,
                                0.00589166721329093
                            ],
                            [
                                -0.011219949461519718,
                                0.03778315335512161,
                                0.004707208834588528,
                                -0.009205994196236134,
                                -0.014284570701420307,
                                -0.0016406916547566652,
                                -0.0006578245083801448,
                                0.046569060534238815
                            ]
                        ],
                        [
                            [
                                -0.016376545652747154,
                                -0.039754290133714676,
                                -0.021503880620002747,
                                0.05352792888879776,
                                -0.014503497630357742,
                                -0.0036725373938679695,
                                0.0012732043396681547,
                                -0.026181170716881752
                            ],
                            [
                                -0.03353780135512352,
                                -0.03943168371915817,
                                -0.030919436365365982,
                                0.03982216492295265,
                                0.03917445242404938,
                                0.0021502685267478228,
                                -0.006050342693924904,
                                0.007355798967182636
                            ],
                            [
                                0.013333536684513092,
                                -0.010897179134190083,
                                -0.03783715143799782,
                                -0.015298279002308846,
                                -0.021706996485590935,
                                0.014799977652728558,
                                0.0021620572078973055,
                                -0.035996370017528534
                            ],
                            [
                                0.022118808701634407,
                                -0.007659084163606167,
                                -0.05516528710722923,
                                0.06702879816293716,
                                0.03846999257802963,
                                -0.02222575806081295,
                                -0.004068519454449415,
                                -0.06001220643520355
                            ],
                            [
                                0.012962407432496548,
                                0.01151991356164217,
                                -0.04321752116084099,
                                -0.027355166152119637,
                                0.01429521944373846,
                                -0.03863951191306114,
                                -0.001678523258306086,
                                -0.03282380849123001
                            ],
                            [
                                -0.0282405037432909,
                                -0.007044041529297829,
                                -0.017288517206907272,
                                -0.042548295110464096,
                                -0.019121864810585976,
                                -0.004836145788431168,
                                -0.0066246348433196545,
                                0.0052515179850161076
                            ],
                            [
                                0.057624977082014084,
                                0.007601036224514246,
                                -0.015514180064201355,
