{
    "in_shape": [
        1,
        null,
        88,
        33
    ],
    "layers": [
        {
            "type": "conv2d",
            "activation": "sigmoid",
            "shape": [
                1,
                null,
                88,
                1
            ],
            "kernel_size_time": 3,
            "kernel_size_feature": 3,
            "dilation": 1,
            "strides": 1,
            "num_filters_in": 33,
            "num_features_in": 88,
            "num_filters_out": 1,
            "padding": "same",
            "weights": [
                [
                    [
                        [
                            [
                                0.029619259759783745
                            ],
                            [
                                0.003604025347158313
                            ],
                            [
                                0.03323238715529442
                            ],
                            [
                                0.05663453787565231
                            ],
                            [
                                0.05222143605351448
                            ],
                            [
                                0.003889265237376094
                            ],
                            [
                                -0.020436357706785202
                            ],
                            [
                                0.038425836712121964
                            ],
                            [
                                -0.03372349590063095
                            ],
                            [
                                0.033551692962646484
                            ],
                            [
                                0.0019456845475360751
                            ],
                            [
                                -0.004042146727442741
                            ],
                            [
                                -0.00012680985673796386
                            ],
                            [
                                -0.028087103739380836
                            ],
                            [
                                -0.039181750267744064
                            ],
                            [
                                -0.09790737926959991
                            ],
                            [
                                0.030161600559949875
                            ],
                            [
                                0.0161209087818861
                            ],
                            [
                                0.05954240635037422
                            ],
                            [
                                -0.002274606842547655
                            ],
                            [
                                0.03084123693406582
                            ],
                            [
                                0.05161402374505997
                            ],
                            [
                                -0.019394416362047195
                            ],
                            [
                                0.05399709939956665
                            ],
                            [
                                -0.019747303798794746
                            ],
                            [
                                -0.01198793575167656
                            ],
                            [
                                0.009352544322609901
                            ],
                            [
                                -0.014560949057340622
                            ],
                            [
                                -0.016378868371248245
                            ],
                            [
                                -0.0584833025932312
                            ],
                            [
                                -0.07535823434591293
                            ],
                            [
                                0.025234626606106758
                            ],
                            [
                                -0.01423961017280817
                            ]
                        ],
                        [
                            [
                                0.24009527266025543
                            ],
                            [
                                -0.02748076431453228
                            ],
                            [
                                0.02732815034687519
                            ],
                            [
                                0.07360173016786575
                            ],
                            [
                                -0.02111572027206421
                            ],
                            [
                                -0.07726837694644928
                            ],
                            [
                                -0.015140729025006294
                            ],
                            [
                                0.04621383175253868
                            ],
                            [
                                -0.021509911864995956
                            ],
                            [
                                -0.04217614233493805
                            ],
                            [
                                -0.02931121177971363
                            ],
                            [
                                -0.013163563795387745
                            ],
                            [
                                -0.02090492472052574
                            ],
                            [
                                -0.04976015165448189
                            ],
                            [
                                0.047729115933179855
                            ],
                            [
                                0.012330548837780952
                            ],
                            [
                                -0.01831592619419098
                            ],
                            [
                                -0.05505986511707306
                            ],
                            [
                                0.008266164921224117
                            ],
                            [
                                -0.019050801172852516
                            ],
                            [
                                -0.01697925291955471
                            ],
                            [
                                0.0893247127532959
                            ],
                            [
                                -0.05563950538635254
                            ],
                            [
                                0.0288397204130888
                            ],
                            [
                                -0.031366221606731415
                            ],
                            [
                                -0.10060587525367737
                            ],
                            [
                                -0.015078275464475155
                            ],
                            [
                                -0.018237916752696037
                            ],
                            [
                                0.02393556572496891
                            ],
                            [
                                -0.039543215185403824
                            ],
                            [
                                0.07984033972024918
                            ],
                            [
                                0.011052779853343964
                            ],
                            [
                                -0.013022289611399174
                            ]
                        ],
                        [
                            [
                                0.018380844965577126
                            ],
                            [
                                -0.007653142791241407
                            ],
                            [
                                0.03213290125131607
                            ],
                            [
                                0.026461543515324593
                            ],
                            [
                                -0.0006714844494126737
                            ],
                            [
                                0.005802706349641085
                            ],
                            [
                                0.012416264973580837
                            ],
                            [
                                0.02380133792757988
                            ],
                            [
                                -0.0084803132340312
                            ],
                            [
                                0.010892920196056366
                            ],
                            [
                                0.0058015636168420315
                            ],
                            [
                                -0.0032008958514779806
                            ],
                            [
                                0.004013776779174805
                            ],
                            [
                                -0.014109397307038307
                            ],
                            [
                                0.007791736163198948
                            ],
                            [
                                0.009723225608468056
                            ],
                            [
                                0.03575237840414047
                            ],
                            [
                                -0.0061295656487345695
                            ],
                            [
                                0.045220863074064255
                            ],
                            [
                                -0.010183257982134819
                            ],
                            [
                                0.009707151912152767
                            ],
                            [
                                -0.04111291095614433
                            ],
                            [
                                0.0018075773259624839
                            ],
                            [
                                -0.03114478476345539
                            ],
                            [
                                -0.010931422933936119
                            ],
                            [
                                -0.020219091325998306
                            ],
                            [
                                0.003832712071016431
                            ],
                            [
                                -0.017476486042141914
                            ],
                            [
                                0.003982656169682741
                            ],
                            [
                                -0.01458861492574215
                            ],
                            [
                                0.018215728923678398
                            ],
                            [
                                0.01276887021958828
                            ],
                            [
                                -0.005162898916751146
                            ]
                        ]
                    ],
                    [
                        [
                            [
                                0.022289156913757324
                            ],
                            [
                                0.009230717085301876
                            ],
                            [
                                0.03402344882488251
                            ],
                            [
                                0.03692690283060074
                            ],
                            [
                                0.08948439359664917
                            ],
                            [
                                0.002459646202623844
                            ],
                            [
                                -0.03781338036060333
                            ],
                            [
                                -0.006490844301879406
                            ],
                            [
                                -0.015260049141943455
                            ],
                            [
                                0.01247861236333847
                            ],
                            [
                                -0.03640824928879738
                            ],
                            [
                                -0.014480463229119778
                            ],
                            [
                                0.04469229280948639
                            ],
                            [
                                -0.020555801689624786
                            ],
                            [
                                -0.03453211113810539
                            ],
                            [
                                -0.12208610028028488
                            ],
                            [
                                0.01859663426876068
                            ],
                            [
                                -0.0008554028463549912
                            ],
                            [
                                0.024995025247335434
                            ],
                            [
                                0.012742570601403713
                            ],
                            [
                                0.026150943711400032
                            ],
                            [
                                0.04375866800546646
                            ],
                            [
                                -0.023449353873729706
                            ],
                            [
                                0.00915711559355259
                            ],
                            [
                                -0.029468020424246788
                            ],
                            [
                                0.05862440541386604
                            ],
                            [
                                -0.033476442098617554
                            ],
                            [
                                -0.035934001207351685
                            ],
                            [
                                -0.0036958088167011738
                            ],
                            [
                                -0.06678387522697449
                            ],
                            [
                                -0.06039731204509735
                            ],
                            [
                                0.04551265016198158
                            ],
                            [
                                -0.016840804368257523
                            ]
                        ],
                        [
                            [
                                0.3512360155582428
                            ],
                            [
                                -0.04112149775028229
                            ],
                            [
                                0.038147471845149994
                            ],
                            [
                                0.043540023267269135
                            ],
                            [
                                -0.030814578756690025
                            ],
                            [
                                -0.11488520354032516
                            ],
                            [
                                -0.029034191742539406
                            ],
                            [
                                -0.013081854209303856
                            ],
                            [
                                -0.018614543601870537
                            ],
                            [
                                -0.06757228821516037
                            ],
                            [
                                -0.07493409514427185
                            ],
                            [
                                -0.02262847125530243
                            ],
                            [
                                0.034807994961738586
                            ],
                            [
                                -0.06775157153606415
                            ],
                            [
                                0.0709703266620636
                            ],
                            [
                                0.010524180717766285
                            ],
                            [
                                -0.045610733330249786
                            ],
                            [
                                -0.07149282097816467
                            ],
                            [
                                0.039878807961940765
                            ],
                            [
                                -0.0699450746178627
                            ],
                            [
                                -0.03218328207731247
                            ],
                            [
                                0.0830877423286438
                            ],
                            [
                                -0.08588273078203201
                            ],
                            [
                                0.04950792342424393
                            ],
                            [
                                -0.057015273720026016
                            ],
                            [
                                -0.1511801779270172
                            ],
                            [
                                -0.0691324770450592
                            ],
                            [
                                0.013735144399106503
                            ],
                            [
                                0.05962655320763588
                            ],
                            [
                                -0.034871216863393784
                            ],
                            [
                                0.09287749230861664
                            ],
                            [
                                -0.0013269360642880201
                            ],
                            [
                                -0.03361208364367485
                            ]
                        ],
                        [
                            [
                                -0.005243861116468906
                            ],
                            [
                                -0.014836051501333714
                            ],
                            [
                                0.02640514262020588
                            ],
                            [
                                0.02256111614406109
                            ],
                            [
                                -0.01601363532245159
                            ],
                            [
                                -0.01260481495410204
                            ],
                            [
                                0.007468162104487419
                            ],
                            [
                                -0.000842115783598274
                            ],
                            [
                                -0.0010021697962656617
                            ],
                            [
                                0.0014673923142254353
                            ],
                            [
                                -0.0031402953900396824
                            ],
                            [
                                -0.008550249971449375
                            ],
                            [
                                0.013305878266692162
                            ],
                            [
                                -0.01920526847243309
                            ],
                            [
                                0.0039015624206513166
                            ],
                            [
                                0.002652887487784028
                            ],
                            [
                                0.01773177832365036
                            ],
                            [
                                -0.013012228533625603
                            ],
                            [
                                0.07562827318906784
                            ],
                            [
                                -0.019170274958014488
                            ],
                            [
                                0.002964319195598364
                            ],
                            [
                                -0.041819535195827484
                            ],
                            [
                                -0.016641737893223763
                            ],
                            [
                                -0.03315851092338562
                            ],
                            [
                                -0.022573471069335938
                            ],
                            [
                                0.02500460483133793
                            ],
                            [
                                -0.037567391991615295
                            ],
                            [
                                -0.002052377676591277
                            ],
                            [
                                0.003923674114048481
                            ],
                            [
                                0.0012632987927645445
                            ],
                            [
                                -0.0037196415942162275
                            ],
                            [
                                0.029904864728450775
                            ],
                            [
                                -0.014024658128619194
                            ]
                        ]
                    ],
                    [
                        [
                            [
                                0.03644957020878792
                            ],
                            [
                                0.011588278226554394
                            ],
                            [
                                0.02604282833635807
                            ],
                            [
                                0.047486867755651474
                            ],
                            [
                                0.130997896194458
                            ],
                            [
                                0.023185662925243378
                            ],
                            [
                                -0.032108452171087265
                            ],
                            [
                                0.051327183842659
                            ],
                            [
                                -0.017049312591552734
                            ],
                            [
                                -0.004583831410855055
                            ],
                            [
                                -0.032389044761657715
                            ],
                            [
                                -0.014481105841696262
                            ],
                            [
                                0.1134050041437149
                            ],
                            [
                                0.005636401940137148
                            ],
                            [
                                -0.027646219357848167
                            ],
                            [
                                -0.13573560118675232
                            ],
                            [
                                0.011916090734302998
                            ],
                            [
                                -0.004351395647972822
                            ],
                            [
                                -0.009844012558460236
                            ],
                            [
                                0.11543305218219757
                            ],
                            [
                                0.021071655675768852
                            ],
                            [
                                -0.0002149916981579736
                            ],
                            [
                                0.01237348560243845
                            ],
                            [
                                -0.015897467732429504
                            ],
                            [
                                -0.013315209187567234
                            ],
                            [
                                0.10449302941560745
                            ],
                            [
                                -0.011237037368118763
                            ],
                            [
                                -0.04261191934347153
                            ],
                            [
                                -0.013800514861941338
                            ],
                            [
                                -0.037860993295907974
                            ],
                            [
                                -0.08314038068056107
                            ],
                            [
                                0.07072032243013382
                            ],
                            [
                                -0.01573692262172699
                            ]
                        ],
                        [
                            [
                                0.452563613653183
                            ],
                            [
                                -0.036972686648368835
                            ],
                            [
                                0.02156221494078636
                            ],
                            [
                                0.03551863878965378
                            ],
                            [
                                -0.012486271560192108
                            ],
                            [
                                -0.12194753438234329
                            ],
                            [
                                -0.026304038241505623
                            ],
                            [
                                -0.06839510798454285
                            ],
                            [
                                -0.059574853628873825
                            ],
                            [
                                -0.07624702900648117
                            ],
                            [
                                -0.0464610792696476
                            ],
                            [
                                -0.02215738035738468
                            ],
                            [
                                0.08859449625015259
                            ],
                            [
                                -0.050749946385622025
                            ],
                            [
                                0.09414441883563995
                            ],
                            [
                                0.026809005066752434
                            ],
                            [
                                -0.03952755406498909
                            ],
                            [
                                -0.06784122437238693
                            ],
                            [
                                0.0631866529583931
                            ],
                            [
                                -0.09937144070863724
                            ],
                            [
                                -0.048646215349435806
                            ],
                            [
                                0.05033298581838608
                            ],
                            [
                                -0.08980566263198853
                            ],
                            [
                                0.11568523943424225
                            ],
                            [
                                -0.04850824549794197
                            ],
                            [
                                -0.23008699715137482
                            ],
                            [
                                -0.04406071826815605
                            ],
                            [
                                0.035207122564315796
                            ],
                            [
                                0.07972811162471771
                            ],
                            [
                                -0.011156006716191769
                            ],
                            [
                                0.1132323294878006
                            ],
                            [
                                0.006361722480505705
                            ],
                            [
                                -0.047375332564115524
                            ]
                        ],
                        [
                            [
                                -0.004354607779532671
                            ],
                            [
                                -0.011762904934585094
                            ],
                            [
                                0.01206930074840784
                            ],
                            [
                                0.040622856467962265
                            ],
                            [
                                0.0021851765923202038
                            ],
                            [
                                0.006867991294711828
                            ],
                            [
                                0.00498944241553545
                            ],
                            [
                                -0.01438653003424406
                            ],
                            [
                                0.003170289099216461
                            ],
                            [
                                0.003983920905739069
                            ],
                            [
                                0.016393963247537613
                            ],
                            [
                                -0.008108914829790592
                            ],
                            [
                                0.02757560834288597
                            ],
                            [
                                -0.0003816672833636403
                            ],
                            [
                                0.013246352784335613
                            ],
                            [
                                0.011240650899708271
                            ],
                            [
                                0.015601377934217453
                            ],
                            [
                                -0.0069315871223807335
                            ],
                            [
                                0.07104633748531342
                            ],
                            [
                                -0.0356980636715889
                            ],
                            [
                                -0.009930310770869255
                            ],
                            [
                                -0.04277143254876137
                            ],
                            [
                                -0.004996682517230511
                            ],
                            [
                                -0.023285720497369766
                            ],
                            [
                                0.004121796227991581
                            ],
                            [
                                0.07024645060300827
                            ],
                            [
                                -0.018844574689865112
                            ],
                            [
                                0.009226424619555473
                            ],
                            [
                                0.009908956475555897
                            ],
                            [
                                0.030665036290884018
                            ],
                            [
                                -0.05489335209131241
                            ],
                            [
                                0.018782397732138634
                            ],
                            [
                                -0.020496457815170288
                            ]
                        ]
                    ]
                ],
                [
                    -0.36014845967292786
                ]
            ]
        }
    ]
}