{
    "in_shape": [
        1,
        null,
        264,
        1
    ],
    "layers": [
        {
            "type": "conv2d",
            "activation": "relu",
            "shape": [
                1,
                null,
                88,
                32
            ],
            "kernel_size_time": 7,
            "kernel_size_feature": 7,
            "dilation": 1,
            "strides": 3,
            "num_filters_in": 1,
            "num_features_in": 264,
            "num_filters_out": 32,
            "padding": "same",
            "weights": [
                [
                    [
                        [
                            [
                                -0.11708883941173553,
                                -0.19452594220638275,
                                0.10938431322574615,
                                0.007202035281807184,
                                -0.12206245213747025,
                                0.11787047982215881,
                                0.13403227925300598,
                                0.15103401243686676,
                                0.0387299619615078,
                                -0.24664495885372162,
                                -0.3668864667415619,
                                -0.14844848215579987,
                                -0.057101309299468994,
                                -0.19832617044448853,
                                -0.05611518397927284,
                                0.11263248324394226,
                                -0.12089721858501434,
                                -0.05067583546042442,
                                0.12908069789409637,
                                0.19972148537635803,
                                0.022706447169184685,
                                0.0010653682984411716,
                                0.01300298422574997,
                                0.20689323544502258,
                                0.05414550378918648,
                                -0.13188804686069489,
                                -0.1414002925157547,
                                0.4155833423137665,
                                -0.08120333403348923,
                                -0.055191751569509506,
                                0.11057349294424057,
                                0.020664755254983902
                            ]
                        ],
                        [
                            [
                                -0.11443283408880234,
                                -0.1856795847415924,
                                0.17184773087501526,
                                0.09186991304159164,
                                -0.25372594594955444,
                                0.2642097473144531,
                                0.07229030132293701,
                                0.28348585963249207,
                                -0.011309812776744366,
                                -0.22908274829387665,
                                -0.205229252576828,
                                0.019870394840836525,
                                0.22793863713741302,
                                0.08741559833288193,
                                -0.040628157556056976,
                                0.23227553069591522,
                                -0.01957688108086586,
                                0.10689259320497513,
                                -0.026667501777410507,
                                -0.12034133821725845,
                                0.1001390591263771,
                                -0.07946783304214478,
                                -0.22240322828292847,
                                0.2799980044364929,
                                0.11113842576742172,
                                0.006825054995715618,
                                -0.17400692403316498,
                                -0.20201922953128815,
                                0.035007547587156296,
                                0.19805683195590973,
                                -0.07525952905416489,
                                0.14702878892421722
                            ]
                        ],
                        [
                            [
                                0.039194006472826004,
                                0.13654977083206177,
                                0.12615253031253815,
                                0.11365017294883728,
                                0.043647442013025284,
                                -0.12523652613162994,
                                -0.051202598959207535,
                                -0.0712478831410408,
                                -0.06145394593477249,
                                -0.11816855520009995,
                                -0.0757160484790802,
                                0.08958417922258377,
                                0.1980004906654358,
                                -0.02030346728861332,
                                0.13136257231235504,
                                0.11081673949956894,
                                0.11723494529724121,
                                0.008741282857954502,
                                0.05789032578468323,
                                0.13302433490753174,
                                -0.0019152864115312696,
                                -0.07813972979784012,
                                -0.18061906099319458,
                                -0.06316013634204865,
                                0.16062615811824799,
                                -0.05010630190372467,
                                -0.06030900031328201,
                                0.018524503335356712,
                                -0.13636520504951477,
                                0.16547031700611115,
                                -0.04784770309925079,
                                0.15652477741241455
                            ]
                        ],
                        [
                            [
                                0.12969009578227997,
                                -0.11555441468954086,
                                -0.057522002607584,
                                0.032404836267232895,
                                0.02346804551780224,
                                -0.04852784425020218,
                                0.11547274142503738,
                                -0.07200286537408829,
                                0.05822090804576874,
                                -0.06117553263902664,
                                -0.07247526943683624,
                                -0.04134742543101311,
                                -0.23205408453941345,
                                0.19851985573768616,
                                0.016085773706436157,
                                0.15247446298599243,
                                -0.038989923894405365,
                                -0.35834309458732605,
                                -0.2970220446586609,
                                -0.17909066379070282,
                                -0.09911540150642395,
                                -0.3702613115310669,
                                0.18566009402275085,
                                -0.1480153501033783,
                                -0.12686102092266083,
                                -0.1514321118593216,
                                -0.27302759885787964,
                                -0.04371865093708038,
                                0.1927342265844345,
                                0.21586793661117554,
                                0.10154204815626144,
                                -0.15174153447151184
                            ]
                        ],
                        [
                            [
                                -0.2312408983707428,
                                0.0883309468626976,
                                0.056717753410339355,
                                0.05226792395114899,
                                0.029863441362977028,
                                -0.06341011077165604,
                                -0.019306141883134842,
                                -0.1031900942325592,
                                -0.09836083650588989,
                                -0.03481394052505493,
                                -0.03330066800117493,
                                -0.01065779384225607,
                                -0.24406857788562775,
                                0.006804195232689381,
                                -0.18143606185913086,
                                -0.06572779268026352,
                                -0.06353428959846497,
                                -0.03082781471312046,
                                0.05938186123967171,
                                -0.14558853209018707,
                                -0.028040358796715736,
                                -0.08931368589401245,
                                -0.13068057596683502,
                                -0.10480858385562897,
                                0.1327344924211502,
                                -0.05093097686767578,
                                -0.09121434390544891,
                                -0.014685703441500664,
                                -0.09498819708824158,
                                0.10092326253652573,
                                -0.2060464471578598,
                                0.028271783143281937
                            ]
                        ],
                        [
                            [
                                -0.22223280370235443,
                                -0.005505282897502184,
                                -0.051001522690057755,
                                -0.10070331394672394,
                                -0.2306332141160965,
                                -0.1694338321685791,
                                0.10031980276107788,
                                -0.04963964596390724,
                                0.17200574278831482,
                                -0.020666932687163353,
                                -0.045788004994392395,
                                0.07348765432834625,
                                0.14110417664051056,
                                -0.19395866990089417,
                                0.19556638598442078,
                                -0.041692670434713364,
                                -0.12697076797485352,
                                -0.015401387587189674,
                                0.06332430988550186,
                                0.010355581529438496,
                                -0.14017948508262634,
                                -0.051307015120983124,
                                0.08324353396892548,
                                -0.19815082848072052,
                                -0.241670623421669,
                                -0.13688664138317108,
                                -0.029369408264756203,
                                -0.03634951636195183,
                                -0.012321673333644867,
                                0.09393282234668732,
                                -0.17011718451976776,
                                0.3362341821193695
                            ]
                        ],
                        [
                            [
                                0.14818699657917023,
                                -0.09653604030609131,
                                0.18347428739070892,
                                -0.2667427659034729,
                                -0.08261837810277939,
                                0.0037577988114207983,
                                -0.4966585636138916,
                                0.020011400803923607,
                                0.05141795426607132,
                                -0.00023311398399528116,
                                -0.16246232390403748,
                                0.3032681941986084,
                                -0.12019646167755127,
                                -0.15213394165039062,
                                -0.005581629928201437,
                                0.003516741329804063,
                                -0.3665984272956848,
                                0.021285906434059143,
                                0.20956094563007355,
                                -0.015461785718798637,
                                -0.2796909809112549,
                                0.05709336698055267,
                                0.1707082986831665,
                                0.10577668994665146,
                                0.07080777734518051,
                                -0.3669239580631256,
                                -0.006680692546069622,
                                0.0773438811302185,
                                -0.4846390187740326,
                                -0.1197507306933403,
                                0.04718130826950073,
                                0.14926443994045258
                            ]
                        ]
                    ],
                    [
                        [
                            [
                                -0.1540714055299759,
                                -0.37844526767730713,
                                -0.10174828767776489,
                                0.13378386199474335,
                                -0.03985161706805229,
                                0.18594159185886383,
                                -0.0058143651112914085,
                                0.1804114282131195,
                                -0.056306444108486176,
                                -0.22201642394065857,
                                -0.21992281079292297,
                                0.15220166742801666,
                                -0.1884101927280426,
                                -0.024200158193707466,
                                -0.08004993945360184,
                                0.13437892496585846,
                                -0.0024410930927842855,
                                0.0825313851237297,
                                0.08585494011640549,
                                -0.0819643959403038,
                                0.08288387954235077,
                                0.05522717162966728,
                                -0.07793254405260086,
                                0.21386145055294037,
                                0.08971448987722397,
                                -0.03138935938477516,
                                -0.13160845637321472,
                                0.08406959474086761,
                                -0.10411883145570755,
                                -0.0029358884785324335,
                                -0.06355412304401398,
                                -0.04568192735314369
                            ]
                        ],
                        [
                            [
                                -0.1901850700378418,
                                -0.13371676206588745,
                                0.16966857016086578,
                                0.08415781706571579,
                                -0.2885555326938629,
                                0.2889115810394287,
                                -0.016150685027241707,
                                0.31119096279144287,
                                -0.112638458609581,
                                -0.20955875515937805,
                                -0.08231185376644135,
                                -0.02020009234547615,
                                -0.17107141017913818,
                                -0.005707751959562302,
                                -0.11789777129888535,
                                0.23960880935192108,
                                -0.11185145378112793,
                                0.06899945437908173,
                                0.04308818653225899,
                                0.12596891820430756,
                                0.037851203233003616,
                                -0.1275034248828888,
                                0.014473604038357735,
                                0.12326690554618835,
                                -0.022738106548786163,
                                -0.10767405480146408,
                                -0.18591102957725525,
                                -0.17134353518486023,
                                0.002137599978595972,
                                0.18846146762371063,
                                -0.2945176661014557,
                                0.09318078309297562
                            ]
                        ],
                        [
                            [
                                -0.01506183110177517,
                                0.026518166065216064,
                                0.037574365735054016,
                                -0.030383286997675896,
                                -0.08060362935066223,
                                -0.046711038798093796,
                                -0.0024775571655482054,
                                -0.03821863234043121,
                                0.14702413976192474,
                                -0.08813522011041641,
                                0.08244572579860687,
                                -0.01960703171789646,
                                -0.22314737737178802,
                                0.1954738199710846,
                                -0.13443565368652344,
                                0.1497841626405716,
                                0.11753726750612259,
                                0.05300235003232956,
                                0.12033683061599731,
                                -0.12205014377832413,
                                -0.03828907757997513,
                                0.07511457800865173,
                                -0.12816254794597626,
                                -0.07240338623523712,
                                -0.1617216318845749,
                                -0.06288450211286545,
                                -0.062023378908634186,
                                -0.03171315789222717,
                                -0.005270006600767374,
                                0.0650922954082489,
                                0.11334860324859619,
                                -0.02836896851658821
                            ]
                        ],
                        [
                            [
                                0.07166384905576706,
                                0.01580890454351902,
                                -0.2629845142364502,
                                -0.11183708161115646,
                                0.024396385997533798,
                                -0.00953548401594162,
                                0.05440661311149597,
                                -0.05770133063197136,
                                0.076400525867939,
                                -0.08332423120737076,
                                0.00472627067938447,
                                0.07912874966859818,
                                0.05525252968072891,
                                -0.10825855284929276,
                                -0.02800426259636879,
                                0.09262219816446304,
                                0.12491712719202042,
                                -0.32595980167388916,
                                -0.18538838624954224,
                                -0.29414570331573486,
                                -0.04573819786310196,
                                -0.27577635645866394,
                                0.021562425419688225,
                                0.08773324638605118,
                                0.04615926370024681,
                                -0.006254348438233137,
                                -0.2362421751022339,
                                0.049396052956581116,
                                0.09663558006286621,
                                0.18126586079597473,
                                -0.11490882933139801,
                                0.004216160625219345
                            ]
                        ],
                        [
                            [
                                -0.013554956763982773,
                                -0.0164579376578331,
                                -0.07156388461589813,
                                0.012807847931981087,
                                0.1286456435918808,
                                -0.040382541716098785,
                                0.09567037224769592,
                                -0.07149102538824081,
                                -0.012117371894419193,
                                -0.04215741902589798,
                                -0.01602158509194851,
                                -0.04399194195866585,
                                -0.08033500611782074,
                                0.09432216733694077,
                                -0.24695920944213867,
                                -0.008123096078634262,
                                0.053283970803022385,
                                -0.028612354770302773,
                                0.08969239145517349,
                                -0.17407789826393127,
                                -0.06811032444238663,
                                0.04035453870892525,
                                0.17114390432834625,
                                -0.019102897495031357,
                                0.03533383831381798,
                                0.05006435886025429,
                                -0.08747655898332596,
                                -0.05635329708456993,
                                -0.13178850710391998,
                                0.0658356174826622,
                                -0.1845405399799347,
                                0.15119479596614838
                            ]
                        ],
                        [
                            [
                                0.1293942928314209,
                                -0.17774698138237,
                                0.05988479033112526,
                                -0.1422029584646225,
                                -0.1386297345161438,
                                -0.17120032012462616,
                                0.018583031371235847,
                                -0.026204371824860573,
                                0.11385013908147812,
                                0.10185075551271439,
                                -0.09680387377738953,
                                0.2374337762594223,
                                0.1960628777742386,
                                -0.15362395346164703,
                                0.038251470774412155,
                                -0.0435275062918663,
                                -0.14085523784160614,
                                -0.04634806886315346,
                                0.02820012904703617,
                                -0.13884054124355316,
                                -0.15679718554019928,
                                -0.004787642043083906,
                                -0.06749222427606583,
                                -0.20914185047149658,
                                -0.20731121301651,
                                -0.1431596428155899,
                                -0.029033023864030838,
                                -0.20217645168304443,
                                -0.02043933793902397,
                                -0.20703600347042084,
                                0.09920328855514526,
                                0.22570988535881042
                            ]
                        ],
                        [
                            [
                                0.08069615811109543,
                                -0.06645037233829498,
                                0.048413343727588654,
                                -0.2463916689157486,
                                -0.015763763338327408,
                                -0.05539650470018387,
                                -0.3127334415912628,
                                0.008066678419709206,
                                -0.21424423158168793,
                                0.19372662901878357,
                                0.033520858734846115,
                                0.2543342113494873,
                                0.009249771945178509,
                                -0.18182609975337982,
                                -0.017724616453051567,
                                -0.0020914003252983093,
                                -0.25670871138572693,
                                -0.03572705015540123,
                                0.11982402950525284,
                                0.11265172809362411,
                                -0.21371789276599884,
                                0.04396288841962814,
                                0.009920922107994556,
                                -0.07112608850002289,
                                -0.09128760546445847,
                                -0.26941388845443726,
                                0.017413070425391197,
                                -0.0006851664511486888,
                                -0.23303726315498352,
                                -0.14033794403076172,
                                0.18971848487854004,
                                -0.03187130391597748
                            ]
                        ]
                    ],
                    [
                        [
                            [
                                0.04652724415063858,
                                -0.09543801099061966,
                                0.04655604809522629,
                                0.17380432784557343,
                                -0.17838479578495026,
                                0.200168177485466,
                                0.0023534917272627354,
                                0.2023957520723343,
                                0.18753398954868317,
                                -0.10985594987869263,
                                -0.2447877824306488,
                                -0.11990109086036682,
                                -0.14309504628181458,
                                -0.04914132133126259,
                                -0.022842882201075554,
                                0.18733738362789154,
                                -0.06476813554763794,
                                0.017399528995156288,
                                0.059817276895046234,
                                0.22503116726875305,
                                0.08941689878702164,
                                0.06546414643526077,
                                -0.04162872955203056,
                                0.2719559371471405,
                                0.07313785701990128,
                                -0.08162593096494675,
                                -0.1066998764872551,
                                0.24402596056461334,
                                -0.08926104754209518,
                                -0.16737186908721924,
                                0.09951648116111755,
                                -0.005696787498891354
                            ]
                        ],
                        [
                            [
                                -0.0503203421831131,
                                -0.10945917665958405,
                                0.08199308812618256,
                                0.0251240823417902,
                                -0.222053661942482,
                                0.28803691267967224,
                                -0.02965216524899006,
                                0.33852288126945496,
                                0.02884073369204998,
                                -0.15145185589790344,
                                -0.04565830156207085,
                                0.08703245967626572,
                                0.14648081362247467,
                                -0.07365509122610092,
                                0.15118253231048584,
                                0.32579705119132996,
                                -0.06988377124071121,
                                0.09045311063528061,
                                0.0557277612388134,
                                0.18942932784557343,
                                0.10986095666885376,
                                0.0385596938431263,
                                -0.11498430371284485,
                                0.22683142125606537,
                                0.2196723073720932,
                                0.026587404310703278,
                                -0.16168087720870972,
                                -0.11078260838985443,
                                0.09840688854455948,
                                -0.1473722904920578,
                                -0.1135183721780777,
                                -0.13371777534484863
                            ]
                        ],
                        [
                            [
                                0.12295711785554886,
                                0.0036289673298597336,
                                -0.14304746687412262,
                                -0.040661826729774475,
                                0.01243723277002573,
                                -0.03835202381014824,
                                -0.02591969445347786,
                                0.0012211345601826906,
                                0.07047077268362045,
                                0.09468485414981842,
                                0.08180096745491028,
                                0.009793257340788841,
                                0.0958094596862793,
                                0.10788628458976746,
                                0.0012326518772169948,
                                0.17856086790561676,
                                0.04260699823498726,
                                0.03542056307196617,
                                0.14201968908309937,
                                -0.04713642969727516,
                                0.03337686508893967,
                                0.028252268210053444,
                                0.14256802201271057,
                                -0.09781243652105331,
                                0.09481257200241089,
                                0.11915343254804611,
                                -0.043410081416368484,
                                -0.06140146777033806,
                                -0.17982353270053864,
                                0.1980361044406891,
                                -0.0355975404381752,
                                0.17130529880523682
                            ]
                        ],
                        [
                            [
                                0.14015470445156097,
                                -0.01862693764269352,
                                -0.06248863413929939,
                                -0.0004223081923555583,
                                0.034742482006549835,
                                0.058861248195171356,
                                0.012083359993994236,
                                -0.03440845385193825,
                                0.015554872341454029,
                                -0.05478677526116371,
                                0.0434761606156826,
                                0.14554017782211304,
                                0.11342672258615494,
                                -0.22691433131694794,
                                -0.10501424968242645,
                                0.08595350384712219,
                                0.021518846973776817,
                                -0.2681559920310974,
                                -0.04575375095009804,
                                -0.09596486389636993,
                                -0.04989052563905716,
                                -0.19454428553581238,
                                0.07798506319522858,
                                0.06938187777996063,
                                0.1146954745054245,
                                -0.0006241063238121569,
                                -0.23677058517932892,
                                -0.005818075500428677,
                                0.06442005187273026,
                                0.08693105727434158,
                                0.12829160690307617,
                                -0.10973742604255676
                            ]
                        ],
                        [
                            [
                                -0.08726689219474792,
                                0.07908809185028076,
                                0.03729342296719551,
                                0.07577862590551376,
                                0.165570467710495,
                                -0.008009684272110462,
                                -0.061377089470624924,
                                -0.039324868470430374,
                                -0.06435513496398926,
                                0.08384866267442703,
                                0.022113248705863953,
                                0.09476249665021896,
                                -0.18550902605056763,
                                -0.007574068382382393,
                                -0.13076284527778625,
                                0.0019966091495007277,
                                0.0641251653432846,
                                0.0004995253402739763,
                                0.18782085180282593,
                                0.07537797093391418,
                                0.01885211281478405,
                                0.07285331934690475,
                                -0.13446833193302155,
                                0.01921495795249939,
                                -0.03945116326212883,
                                0.057511892169713974,
                                -0.07489868998527527,
                                -0.009136810898780823,
                                0.020572297275066376,
                                0.194627046585083,
                                0.1422254592180252,
                                -0.15815423429012299
                            ]
                        ],
                        [
                            [
                                -0.1872774064540863,
                                -0.13934923708438873,
                                0.16864745318889618,
                                -0.06767098605632782,
                                -0.11155892163515091,
                                -0.12980948388576508,
                                0.0400499552488327,
                                -0.0044334870763123035,
                                -0.18410052359104156,
                                0.11772496998310089,
                                -0.016424261033535004,
                                -0.14680714905261993,
                                -0.06411828100681305,
                                -0.19259890913963318,
                                0.04675254970788956,
                                0.011670749634504318,
                                0.03485419973731041,
                                -0.03539559245109558,
                                0.10774319618940353,
                                0.04047839343547821,
                                -0.10706860572099686,
                                0.0509989857673645,
                                0.1960449069738388,
                                -0.14301955699920654,
                                -0.1503044217824936,
                                -0.010090311989188194,
                                -0.00833138171583414,
                                -0.027942245826125145,
                                -0.003862101584672928,
                                -0.08315813541412354,
                                -0.11716219782829285,
                                0.1506308913230896
                            ]
                        ],
                        [
                            [
                                -0.09295669943094254,
                                0.014497664757072926,
                                0.09932821989059448,
                                -0.22237999737262726,
                                -0.12834130227565765,
                                -0.00634056655690074,
                                -0.1646723449230194,
                                0.010053574107587337,
                                0.18569985032081604,
                                0.09368041157722473,
                                -0.0786009430885315,
                                0.03087880276143551,
                                0.2673284113407135,
                                -0.14952270686626434,
                                0.1289447396993637,
                                -0.002023849403485656,
                                -0.1967427134513855,
                                -0.022610994055867195,
                                0.0720302015542984,
                                0.1378668248653412,
                                -0.2234308272600174,
                                -0.04966180399060249,
                                0.24726705253124237,
                                0.03248891234397888,
                                0.12677781283855438,
                                -0.15916591882705688,
                                0.047688331454992294,
                                0.18149210512638092,
                                -0.12586894631385803,
                                -0.2047610580921173,
                                0.13636496663093567,
                                -0.17728683352470398
                            ]
                        ]
                    ],
                    [
                        [
                            [
                                0.12830907106399536,
                                -0.14701169729232788,
                                -0.08297660201787949,
                                0.23650720715522766,
                                0.03424891084432602,
                                0.21220842003822327,
                                -0.07757566124200821,
                                0.22175903618335724,
                                0.18309693038463593,
                                -0.18688899278640747,
                                -0.16144579648971558,
                                -0.1981787532567978,
                                0.26352569460868835,
                                0.09973467886447906,
                                0.21607349812984467,
                                0.2095813900232315,
                                0.0528109148144722,
                                0.07530608028173447,
                                0.021862490102648735,
                                0.23334330320358276,
                                0.246450275182724,
                                0.1277681291103363,
                                -0.24073471128940582,
                                0.2962118089199066,
                                0.22248175740242004,
                                0.11178957670927048,
                                -0.0659247413277626,
                                0.11610033363103867,
                                -0.051184143871068954,
                                0.12253361195325851,
                                -0.1687205284833908,
                                0.1992027461528778
                            ]
                        ],
                        [
                            [
                                -0.05035751685500145,
                                -0.1592637300491333,
                                0.1494957059621811,
                                0.17290887236595154,
                                -0.03948067128658295,
                                0.2839743494987488,
                                0.006958326790481806,
                                0.34552156925201416,
                                0.24911755323410034,
                                -0.127232626080513,
                                -0.05793449655175209,
                                -0.015555720776319504,
                                -0.05879364162683487,
                                -0.08649285137653351,
                                0.09523740410804749,
                                0.3102458715438843,
                                0.040082771331071854,
                                0.09629127383232117,
                                0.014807941392064095,
                                -0.025858411565423012,
                                0.24810703098773956,
                                0.0951182022690773,
                                -0.12327103316783905,
                                0.2392807900905609,
                                0.16160529851913452,
                                0.07451526075601578,
                                -0.10442811995744705,
                                -0.2577698826789856,
                                0.0010722856968641281,
                                0.028518302366137505,
                                -0.12451852858066559,
                                -0.11371757835149765
                            ]
                        ],
                        [
                            [
                                0.24513664841651917,
                                0.08601654320955276,
                                0.133794367313385,
                                0.17387698590755463,
                                0.12257994711399078,
                                -0.041819289326667786,
                                -0.1716683804988861,
                                0.021990828216075897,
                                0.03784411400556564,
                                0.12368529289960861,
                                0.1891053169965744,
                                -0.17915783822536469,
                                -0.036873914301395416,
                                0.17981697618961334,
                                -0.10973276197910309,
                                0.1872469037771225,
                                0.1170428991317749,
                                0.09202050417661667,
                                0.20639106631278992,
                                0.010358241386711597,
                                0.17383643984794617,
                                0.19238176941871643,
                                -0.013795184902846813,
                                0.02159370481967926,
                                -0.16026176512241364,
                                0.22563016414642334,
                                0.023033667355775833,
                                -0.06396883726119995,
                                -0.19005553424358368,
                                0.10688503086566925,
                                -0.03284412622451782,
                                -0.14933273196220398
                            ]
                        ],
                        [
                            [
                                0.20750683546066284,
                                0.09543666988611221,
                                -0.2017553448677063,
                                0.12226210534572601,
                                0.107066810131073,
                                0.03751912713050842,
                                0.004404050763696432,
                                -0.01692260056734085,
                                0.06754974275827408,
                                -0.07976728677749634,
                                0.03975127637386322,
                                -0.021674472838640213,
                                0.01572556421160698,
                                0.1882699429988861,
                                0.04897202551364899,
                                -0.0008555027889087796,
                                0.2053101360797882,
                                -0.25102829933166504,
                                0.139070063829422,
                                -0.01903705485165119,
                                0.04954713582992554,
                                -0.16446274518966675,
                                0.1145738735795021,
                                -0.16692298650741577,
                                0.16758683323860168,
                                0.015144125558435917,
                                -0.22748219966888428,
                                -0.08467388898134232,
                                0.056741807609796524,
                                0.16566865146160126,
                                0.05459921061992645,
                                0.15508008003234863
                            ]
                        ],
                        [
                            [
                                -0.09294764697551727,
                                0.12382551282644272,
                                -0.16981159150600433,
                                0.17921082675457,
                                0.22637353837490082,
                                -0.030599331483244896,
                                0.026564883068203926,
                                -0.021887538954615593,
                                -0.1313239485025406,
                                0.15540215373039246,
                                0.09475351125001907,
                                -0.14683784544467926,
                                -0.00596637325361371,
                                0.15938907861709595,
                                0.17972274124622345,
                                -0.01077537052333355,
                                0.08149024099111557,
                                0.02725963294506073,
                                0.19592325389385223,
                                0.02608909271657467,
                                0.10425993800163269,
                                0.00429944833740592,
                                0.10487641394138336,
                                -0.013577882200479507,
                                -0.11647003889083862,
                                0.14648586511611938,
                                -0.012055317871272564,
                                0.0167158804833889,
                                -0.058700527995824814,
                                0.20404376089572906,
                                -0.19732078909873962,
                                -0.03587520122528076
                            ]
                        ],
                        [
                            [
                                -0.050622258335351944,
                                0.1606026142835617,
                                0.09910140931606293,
                                0.0194650050252676,
                                -0.058097440749406815,
                                -0.1428125500679016,
                                0.11947163194417953,
                                0.014760967344045639,
                                0.16031502187252045,
                                0.2042006552219391,
                                0.11591412127017975,
                                0.21197810769081116,
                                0.04638773575425148,
                                -0.05149068310856819,
                                0.20466871559619904,
                                0.038414761424064636,
                                0.10550049692392349,
                                0.03683137893676758,
                                0.03924018144607544,
                                0.1073211058974266,
                                0.04145659878849983,
                                -0.02934686839580536,
                                0.013718537986278534,
                                -0.21951991319656372,
                                -0.15161195397377014,
                                0.10250663757324219,
                                0.044723860919475555,
                                -0.13242937624454498,
                                0.06546403467655182,
                                0.03254445269703865,
                                0.026633748784661293,
                                -0.07913946360349655
                            ]
                        ],
                        [
                            [
                                0.1192924901843071,
                                0.05578310415148735,
                                0.2605739235877991,
                                -0.10183604806661606,
                                -0.04686896875500679,
                                -0.0618010088801384,
                                0.1410081684589386,
                                0.020472466945648193,
                                0.14369498193264008,
                                0.13621723651885986,
                                0.11880689859390259,
                                -0.1655154824256897,
                                0.04967678338289261,
                                0.21227380633354187,
                                0.159938782453537,
                                -0.005199520383030176,
                                -0.15863989293575287,
                                0.06337156891822815,
                                -0.00024917221162468195,
                                -0.008681398816406727,
                                -0.14453792572021484,
                                0.02025822550058365,
                                -0.02729865349829197,
                                0.008332625962793827,
                                0.14705072343349457,
                                -0.07630930095911026,
                                0.09698576480150223,
                                -0.04837418347597122,
                                0.038616761565208435,
                                -0.15053950250148773,
                                -0.08126131445169449,
                                0.25570401549339294
                            ]
                        ]
                    ],
                    [
                        [
                            [
                                -0.024384010583162308,
                                -0.12738673388957977,
                                0.1823664903640747,
                                0.11112954467535019,
                                -0.02158152312040329,
                                0.1952752023935318,
                                -0.007189960218966007,
                                0.21713389456272125,
                                0.05243241786956787,
                                -0.24747823178768158,
                                -0.19884076714515686,
                                -0.05414660647511482,
                                0.1812210977077484,
                                -0.20820137858390808,
                                0.21111775934696198,
                                0.18636083602905273,
                                -0.05113726109266281,
                                0.08864453434944153,
                                -0.02471212111413479,
                                0.19365547597408295,
                                0.18251684308052063,
                                -0.012725383043289185,
                                -0.2068438082933426,
                                0.1630687713623047,
                                0.12028706073760986,
                                -0.13241246342658997,
                                -0.10237456113100052,
                                0.07936065644025803,
                                0.08803704380989075,
                                -0.08578353375196457,
                                0.13627488911151886,
                                0.07378101348876953
                            ]
                        ],
                        [
                            [
                                0.07118833810091019,
                                -0.1345667690038681,
                                -0.1399020403623581,
                                0.11456406116485596,
                                0.0007604443817399442,
                                0.2596048414707184,
                                -0.03623165935277939,
                                0.29796361923217773,
                                0.1114932969212532,
                                -0.10944055765867233,
                                -0.09185787290334702,
                                0.14951984584331512,
                                0.09417351335287094,
                                0.007205495610833168,
                                -0.19930927455425262,
                                0.30891820788383484,
                                -0.052924320101737976,
                                0.048336468636989594,
                                0.05299406871199608,
                                0.17924711108207703,
                                0.10333672165870667,
                                -0.05716473609209061,
                                0.00906759686768055,
                                0.018077734857797623,
                                0.044412583112716675,
                                0.039592087268829346,
                                -0.14631810784339905,
                                -0.2758149802684784,
                                0.0073885489255189896,
                                0.1017255038022995,
                                -0.1364510953426361,
                                0.13241799175739288
                            ]
                        ],
                        [
                            [
                                0.10914243757724762,
                                0.12957438826560974,
                                -0.1560436189174652,
                                0.0031689549796283245,
                                0.09544037282466888,
                                -0.022731421515345573,
                                -0.06037468835711479,
                                -0.015214849263429642,
                                -0.11706586927175522,
                                -0.05937238782644272,
                                0.10490360856056213,
                                -0.08531629294157028,
                                -0.1294582039117813,
                                -0.18524858355522156,
                                0.04528539627790451,
                                0.1254340559244156,
                                0.12285690754652023,
                                0.08447546511888504,
                                0.2340775728225708,
                                -0.06263583153486252,
                                0.02566927671432495,
                                -0.010305039584636688,
                                0.02892843447625637,
                                -0.14274358749389648,
                                -0.12712794542312622,
                                0.020181804895401,
                                -0.030347470194101334,
                                0.11965312063694,
                                -0.07683148980140686,
                                0.08854246139526367,
                                0.023362580686807632,
                                0.06618522852659225
                            ]
                        ],
                        [
                            [
                                -0.10667268186807632,
                                0.1076410636305809,
                                -0.008682052604854107,
                                0.04632669314742088,
                                0.002179035684093833,
                                0.028555765748023987,
                                -0.04944392293691635,
                                -0.04129118099808693,
                                -0.10904213041067123,
                                0.03822998329997063,
                                -0.0680253803730011,
                                0.04849190637469292,
                                -0.11820375919342041,
                                -0.14438244700431824,
                                -0.31288614869117737,
                                -0.0360538586974144,
                                0.06807184219360352,
                                -0.28391095995903015,
                                0.2188928872346878,
                                -0.3311258554458618,
                                -0.044462401419878006,
                                -0.37263092398643494,
                                -0.002406165935099125,
                                0.030746275559067726,
                                0.08589443564414978,
                                0.025289082899689674,
                                -0.3113064765930176,
                                -0.01794354058802128,
                                0.023188520222902298,
                                0.09192637354135513,
                                0.08096962422132492,
                                -0.0001345526397926733
                            ]
                        ],
                        [
                            [
                                0.07497958838939667,
                                0.05705508217215538,
                                0.18277202546596527,
                                0.01169783528894186,
                                0.18526212871074677,
                                -0.030082812532782555,
                                0.00738753704354167,
                                -0.05486052855849266,
                                0.03147035464644432,
                                0.03368198499083519,
                                0.15097370743751526,
                                0.18759363889694214,
                                -0.20814578235149384,
                                0.032596565783023834,
                                -0.14116120338439941,
                                -0.05568866804242134,
                                0.012046908028423786,
                                -0.004477105103433132,
                                0.25026747584342957,
                                0.056437134742736816,
                                -0.007044180762022734,
                                0.10926210880279541,
                                -0.09569589793682098,
                                0.001935082022100687,
                                -0.21442410349845886,
                                -0.04555040970444679,
                                -0.0685342401266098,
                                -0.16629734635353088,
                                -0.14039389789104462,
                                0.21301649510860443,
                                -0.18060187995433807,
                                0.0039513916708528996
                            ]
                        ],
                        [
                            [
                                0.048789724707603455,
                                0.15031276643276215,
                                -0.05613492429256439,
                                -0.10571344941854477,
                                -0.02234419248998165,
                                -0.15666335821151733,
                                0.0995059683918953,
                                -0.01341868843883276,
                                -0.23854133486747742,
                                0.08438742160797119,
                                -0.06347957253456116,
                                0.17512980103492737,
                                -0.1599515825510025,
                                0.2414115071296692,
                                0.027799246832728386,
                                0.008045223541557789,
                                -0.11686760932207108,
                                -0.024439694359898567,
                                0.047283850610256195,
                                0.14095333218574524,
                                -0.07149720937013626,
                                0.01209748350083828,
                                0.05697353184223175,
                                -0.11298462003469467,
                                0.04057333245873451,
                                -0.009469402022659779,
                                0.0007769728545099497,
                                -0.07784144580364227,
                                -0.09067030251026154,
                                -0.15408380329608917,
                                -0.14963823556900024,
                                0.11498738825321198
                            ]
                        ],
                        [
                            [
                                -0.16366907954216003,
                                0.026237089186906815,
                                -0.03340740501880646,
                                -0.17938172817230225,
                                -0.19941319525241852,
                                -0.07889758795499802,
                                0.20627982914447784,
                                0.0015805887524038553,
                                -0.14583586156368256,
                                0.188979834318161,
                                0.04950262978672981,
                                -0.25094106793403625,
                                0.15997277200222015,
                                0.1779785007238388,
                                -0.02451878786087036,
                                0.011803848668932915,
                                -0.2767380475997925,
                                0.03679030388593674,
                                -0.05764453485608101,
                                -0.10560223460197449,
                                -0.2696515619754791,
                                0.09984710812568665,
                                0.2217881679534912,
                                -0.22368086874485016,
                                0.14941544830799103,
                                -0.2536793351173401,
                                0.04383048042654991,
                                0.06032068654894829,
                                0.1850077509880066,
                                -0.29155871272087097,
                                -0.1491786390542984,
                                -0.03470019996166229
                            ]
                        ]
                    ],
                    [
                        [
                            [
                                0.21745863556861877,
                                -0.25289222598075867,
                                0.09070783853530884,
                                0.12413846701383591,
                                -0.2695784270763397,
                                0.2169027477502823,
                                0.0247755516320467,
                                0.20601673424243927,
                                0.1425437331199646,
                                -0.3041030168533325,
                                -0.3301488757133484,
                                -0.18645912408828735,
                                -0.0274686086922884,
                                0.06974663585424423,
                                0.2415357381105423,
                                0.1692989468574524,
                                -0.13503648340702057,
                                0.10593406111001968,
                                -0.12745146453380585,
                                -0.011591298505663872,
                                0.14446453750133514,
                                -0.06240079179406166,
                                -0.2655946612358093,
                                0.08450184017419815,
                                0.2072983980178833,
                                -0.1346265971660614,
                                -0.12785428762435913,
                                0.24991276860237122,
                                0.1458357870578766,
                                -0.19178803265094757,
                                0.1754097044467926,
                                -0.21750140190124512
                            ]
                        ],
                        [
                            [
                                -0.20015716552734375,
                                -0.04865814372897148,
                                0.13060659170150757,
                                -0.00924763549119234,
                                -0.20489554107189178,
                                0.19121219217777252,
                                0.0064434451051056385,
                                0.2403322458267212,
                                -0.12058021128177643,
                                -0.13485726714134216,
                                -0.10545867681503296,
                                -0.0014339197659865022,
                                -0.06775840371847153,
                                -0.1318472921848297,
                                0.020401258021593094,
                                0.22564847767353058,
                                0.061975907534360886,
                                0.0005758550832979381,
                                0.012170195579528809,
                                -0.05389021337032318,
                                0.03774929419159889,
                                -0.10675320774316788,
                                0.05109405890107155,
                                -0.012173891998827457,
                                0.08191366493701935,
                                -0.005660898517817259,
                                -0.15931518375873566,
                                -0.09331292659044266,
                                0.0009348267922177911,
                                0.24056066572666168,
                                -0.15753750503063202,
                                0.06769140809774399
                            ]
                        ],
                        [
                            [
                                0.07823731750249863,
                                0.07538270205259323,
                                -0.08664898574352264,
                                0.004800515249371529,
                                -0.0659003034234047,
                                -0.12561509013175964,
                                -0.1546565592288971,
                                -0.07197513431310654,
                                -0.18085019290447235,
                                0.06108831241726875,
                                0.014482090249657631,
                                0.13781873881816864,
                                -0.0073411730118095875,
                                0.24384242296218872,
                                -0.0024509914219379425,
                                0.09293508529663086,
                                0.15726129710674286,
                                -0.01388379093259573,
                                0.22986026108264923,
                                0.12434647977352142,
                                0.04862182214856148,
                                0.022188913077116013,
                                0.16117992997169495,
                                -0.037924665957689285,
                                0.11466341465711594,
                                -0.03904208168387413,
                                -0.04237453266978264,
                                0.08167990297079086,
                                -0.11548999696969986,
                                -0.08401918411254883,
                                -0.06691122055053711,
                                -0.12765903770923615
                            ]
                        ],
                        [
                            [
                                -0.24121537804603577,
                                -0.16167998313903809,
                                -0.3282026946544647,
                                0.060321155935525894,
                                -0.05071339011192322,
                                -0.0030673122964799404,
                                -0.008318855427205563,
                                -0.08100299537181854,
                                -0.2613353431224823,
                                0.0045617311261594296,
                                -0.0536443293094635,
                                0.15879657864570618,
                                0.18758094310760498,
                                -0.1432582139968872,
                                -0.3697158992290497,
                                -0.1154361292719841,
                                0.023370269685983658,
                                -0.41839656233787537,
                                0.26156434416770935,
                                -0.26981303095817566,
                                -0.11337664723396301,
                                -0.41926807165145874,
                                0.21529920399188995,
                                -0.06804896891117096,
                                0.11328309029340744,
                                -0.14091931283473969,
                                -0.38097506761550903,
                                0.06487961858510971,
                                -0.04247283563017845,
                                0.12963606417179108,
                                -0.09671898931264877,
                                -0.02245408110320568
                            ]
                        ],
                        [
                            [
                                -0.011604031547904015,
                                -0.03138111159205437,
                                -0.1873001903295517,
                                -0.022807549685239792,
                                -0.09824696183204651,
                                -0.06527846306562424,
                                -0.018673861399292946,
                                -0.096241295337677,
                                -0.20464730262756348,
                                0.12108156830072403,
                                0.07380659133195877,
                                -0.042484816163778305,
                                0.09604228287935257,
                                0.07979463040828705,
                                0.012056500650942326,
                                -0.11055227369070053,
                                0.09914225339889526,
                                0.028333911672234535,
                                0.238777756690979,
                                -0.13356198370456696,
                                0.02245752513408661,
                                0.04288949444890022,
                                0.20420171320438385,
                                -0.1536237597465515,
                                -0.26924213767051697,
                                0.0027841071132570505,
                                -0.07824156433343887,
                                -0.1419023871421814,
                                -0.1189587190747261,
                                -0.06073635071516037,
                                0.1864168345928192,
                                -0.3174465596675873
                            ]
                        ],
                        [
                            [
                                -0.11221863329410553,
                                -0.08817487955093384,
                                -0.1156553328037262,
                                -0.11270277202129364,
                                -0.0541931688785553,
                                -0.16843478381633759,
                                0.11363399773836136,
                                -0.052408382296562195,
                                0.061375074088573456,
                                0.1671411544084549,
                                -0.11799149960279465,
                                -0.008267807774245739,
                                0.1856899857521057,
                                0.08937849849462509,
                                -0.06472596526145935,
                                -0.0814083069562912,
                                -0.02059783600270748,
                                -0.05271001532673836,
                                0.06270943582057953,
                                -0.009163044393062592,
                                -0.12372172623872757,
                                0.08657895028591156,
                                0.28363320231437683,
                                0.08843854069709778,
                                -0.21781060099601746,
                                -0.11137290298938751,
                                -0.015013586729764938,
                                -0.04514231160283089,
                                0.12115440517663956,
                                0.06706489622592926,
                                0.10014963895082474,
                                0.06227927654981613
                            ]
                        ],
                        [
                            [
                                -0.2768345773220062,
                                0.04760462045669556,
                                0.12222547084093094,
                                -0.35793113708496094,
                                -0.2822423279285431,
                                -0.04730476066470146,
                                0.3986715078353882,
                                -0.016731414943933487,
                                0.09031320363283157,
                                0.12125176191329956,
                                -0.0854896605014801,
                                -0.3295291066169739,
                                0.0038276591803878546,
                                0.1918746531009674,
                                -0.09704313427209854,
                                -0.04258658364415169,
                                -0.2662140130996704,
                                -0.034799251705408096,
                                -0.15872198343276978,
                                -0.16578994691371918,
                                -0.4143209457397461,
                                0.051787279546260834,
                                0.14860789477825165,
                                0.08255747705698013,
                                -0.048769351094961166,
                                -0.3532332181930542,
                                0.010476522147655487,
                                -0.049666628241539,
                                0.3549686074256897,
                                -0.043234601616859436,
                                0.1979769915342331,
                                -0.13690850138664246
                            ]
                        ]
                    ],
                    [
                        [
                            [
                                0.10661447793245316,
                                -0.5006353259086609,
                                0.1969185620546341,
                                0.1537669152021408,
                                -0.08643846213817596,
                                0.2215415984392166,
                                0.0034793957602232695,
                                0.20075933635234833,
                                0.16806888580322266,
                                -0.30978965759277344,
                                -0.45425698161125183,
                                0.030869916081428528,
                                0.15123708546161652,
                                0.10464100539684296,
                                0.23356303572654724,
                                0.1748204529285431,
                                0.0008317009778693318,
                                -0.006674823351204395,
                                -0.1805858314037323,
                                0.09359407424926758,
                                0.0668676421046257,
                                0.05068378150463104,
                                -0.19357158243656158,
                                0.25905007123947144,
                                0.22865508496761322,
                                -0.12861283123493195,
                                -0.11876138299703598,
                                0.4230814278125763,
                                0.16704949736595154,
                                0.06635087728500366,
                                -0.03593164309859276,
                                0.10075032711029053
                            ]
                        ],
                        [
                            [
                                0.10232748091220856,
                                -0.10561297833919525,
                                0.05446280911564827,
                                -0.010402697138488293,
                                -0.24307076632976532,
                                0.12262164056301117,
                                -0.011663874611258507,
                                0.18075843155384064,
                                -0.29503679275512695,
                                -0.06152840703725815,
                                -0.21800562739372253,
                                0.20298375189304352,
                                -0.15590712428092957,
                                0.05381143465638161,
                                0.2118406593799591,
                                0.17300547659397125,
                                0.014942831359803677,
                                0.057386185973882675,
                                -0.03153591603040695,
                                0.216817244887352,
                                0.0692102387547493,
                                -0.07832401990890503,
                                -0.1142505332827568,
                                0.15227684378623962,
                                -0.12446340173482895,
                                -0.041988205164670944,
                                -0.13421794772148132,
                                -0.0660158321261406,
                                0.1420544683933258,
                                0.026821503415703773,
                                0.1836690604686737,
                                -0.2454274296760559
                            ]
                        ],
                        [
                            [
                                0.02971632592380047,
                                0.11718139797449112,
                                -0.02379767782986164,
                                -0.02136446163058281,
                                0.152756005525589,
                                -0.13779671490192413,
                                -0.1707175076007843,
                                -0.13532014191150665,
                                -0.15839414298534393,
                                0.0972161516547203,
                                0.10886096954345703,
                                -0.16677291691303253,
                                0.09146580845117569,
                                0.17263659834861755,
                                -0.12248203158378601,
                                0.018122775480151176,
                                0.0710005909204483,
                                0.09857400506734848,
                                0.1517343372106552,
                                -0.05800124630331993,
                                0.004876832012087107,
                                0.11151376366615295,
                                0.10482646524906158,
                                -0.07935801148414612,
                                -0.11062201857566833,
                                -0.03064599819481373,
                                -0.027297548949718475,
                                -0.06860712915658951,
                                -0.17838864028453827,
                                -0.09098745882511139,
                                0.2323271930217743,
                                -0.2949354350566864
                            ]
                        ],
                        [
                            [
                                -0.18026719987392426,
                                0.045015327632427216,
                                -0.35899290442466736,
                                -0.07854972034692764,
                                -0.08334451913833618,
                                -0.09280751645565033,
                                -0.14286857843399048,
                                -0.1240735575556755,
                                -0.26915058493614197,
                                -0.11153005808591843,
                                -0.07920520007610321,
                                0.07468441128730774,
                                0.01677154004573822,
                                -0.004510971251875162,
                                -0.12102854251861572,
                                -0.18935707211494446,
                                0.12302982062101364,
                                -0.48116767406463623,
                                0.27524933218955994,
                                -0.23195944726467133,
                                -0.10118509083986282,
                                -0.43470317125320435,
                                0.10781426727771759,
                                -0.04356900602579117,
                                -0.2169220894575119,
                                -0.14351488649845123,
                                -0.43794676661491394,
                                0.07402800768613815,
                                0.007698738016188145,
                                0.18429364264011383,
                                -0.042968060821294785,
                                0.07711612433195114
                            ]
                        ],
                        [
                            [
                                0.15739120543003082,
                                0.12204908579587936,
                                -0.14547964930534363,
                                -0.008586777374148369,
                                0.08015745133161545,
                                -0.0989965945482254,
                                -0.007928324863314629,
                                -0.14778368175029755,
                                -0.18243075907230377,
                                0.023349054157733917,
                                0.04910077154636383,
                                -0.11892402917146683,
                                -0.15168790519237518,
                                0.20049473643302917,
                                -0.13156773149967194,
                                -0.18611042201519012,
                                0.11635004729032516,
                                0.08132700622081757,
                                0.1265832781791687,
                                0.08037932217121124,
                                0.023634325712919235,
                                0.08902925997972488,
                                -0.0010731304064393044,
                                -0.1460232436656952,
                                0.033553991466760635,
                                0.016357824206352234,
                                -0.05352485924959183,
                                -0.12734289467334747,
                                -0.1593739092350006,
                                0.1387009471654892,
                                0.23013260960578918,
                                0.013456808403134346
                            ]
                        ],
                        [
                            [
                                -0.1549985557794571,
                                -0.01321776956319809,
                                -0.007201786153018475,
                                -0.062320295721292496,
                                0.010205157101154327,
                                -0.17918308079242706,
                                0.15608087182044983,
                                -0.0968640148639679,
                                -0.012084675952792168,
                                0.14978022873401642,
                                -0.0658554658293724,
                                0.17832250893115997,
                                0.04007741063833237,
                                -0.11569791287183762,
                                0.01109990756958723,
                                -0.12882521748542786,
                                -0.11347950994968414,
                                -0.0048828995786607265,
                                0.007190017495304346,
                                0.1494084596633911,
                                -0.09371009469032288,
                                -0.005529151763767004,
                                0.21108423173427582,
                                0.05033067986369133,
                                -0.13369178771972656,
                                -0.12906739115715027,
                                -0.00630826223641634,
                                -0.08312691003084183,
                                0.06665851920843124,
                                0.1263391077518463,
                                0.30492737889289856,
                                -0.0025490710977464914
                            ]
                        ],
                        [
                            [
                                -0.3068568706512451,
                                -0.1846717894077301,
                                -0.02109808661043644,
                                -0.4918447732925415,
                                -0.321227490901947,
                                -0.07657162845134735,
                                0.39704349637031555,
                                -0.03081171214580536,
                                -0.11057454347610474,
                                0.19340722262859344,
                                -0.08745270222425461,
                                0.04195729270577431,
                                0.1019301787018776,
                                0.08512803167104721,
                                -0.054887399077415466,
                                -0.07200728356838226,
                                -0.48504531383514404,
                                -0.11254840344190598,
                                -0.16786061227321625,
                                -0.008081807754933834,
                                -0.3768254816532135,
                                0.020580215379595757,
                                0.053681161254644394,
                                0.0004208620230201632,
                                0.12196599692106247,
                                -0.45994678139686584,
                                0.02109074778854847,
                                0.11954407393932343,
                                0.31784120202064514,
                                -0.09134554862976074,
                                0.009095195680856705,
                                -0.012676450423896313
                            ]
                        ]
                    ]
                ],
                [
                    0.30992940068244934,
                    0.5528377890586853,
                    0.31296661496162415,
                    0.44302070140838623,
                    0.5749708414077759,
                    -0.09435456246137619,
                    -0.04262005165219307,
                    -0.21977251768112183,
                    0.2938917279243469,
                    0.4683896005153656,
                    0.6673905849456787,
                    -0.05627855286002159,
                    0.15337666869163513,
                    0.14326898753643036,
                    0.3228438198566437,
                    -0.3382425010204315,
                    0.5086042881011963,
                    0.6113627552986145,
                    -0.336405485868454,
                    0.3320351839065552,
                    0.5395300984382629,
                    0.5703149437904358,
                    0.16775688529014587,
                    -0.08323061466217041,
                    -0.06603558361530304,
                    0.6771699786186218,
                    1.0468562841415405,
                    -0.24344830214977264,
                    0.05202765390276909,
                    0.04662943258881569,
                    0.15568453073501587,
                    0.17148442566394806
                ]
            ]
        },
        {
            "type": "conv2d",
            "activation": "sigmoid",
            "shape": [
                1,
                null,
                88,
                1
            ],
            "kernel_size_time": 7,
            "kernel_size_feature": 3,
            "dilation": 1,
            "strides": 1,
            "num_filters_in": 32,
            "num_features_in": 88,
            "num_filters_out": 1,
            "padding": "same",
            "weights": [
                [
                    [
                        [
                            [
                                0.001481340965256095
                            ],
                            [
                                -0.0010722398292273283
                            ],
                            [
                                0.008976168930530548
                            ],
                            [
                                -0.012706873938441277
                            ],
                            [
                                -0.007912646979093552
                            ],
                            [
                                0.015039559453725815
                            ],
                            [
                                0.17812688648700714
                            ],
                            [
                                0.0005603506579063833
                            ],
                            [
                                0.0052274297922849655
                            ],
                            [
                                0.009872213937342167
                            ],
                            [
                                -0.001090780831873417
                            ],
                            [
                                0.0854351744055748
                            ],
                            [
                                0.0050952560268342495
                            ],
                            [
                                -0.003656568005681038
                            ],
                            [
                                0.009366330690681934
                            ],
                            [
                                -0.0013940595090389252
                            ],
                            [
                                -0.018289590254426003
                            ],
                            [
                                0.0053630066104233265
                            ],
                            [
                                0.12504321336746216
                            ],
                            [
                                0.010858419351279736
                            ],
                            [
                                -0.01148258987814188
                            ],
                            [
                                0.008993578143417835
                            ],
                            [
                                0.011284369975328445
                            ],
                            [
                                0.013365612365305424
                            ],
                            [
                                -0.007517021149396896
                            ],
                            [
                                -0.021230870857834816
                            ],
                            [
                                0.008196801878511906
                            ],
                            [
                                -0.020785734057426453
                            ],
                            [
                                0.16706745326519012
                            ],
                            [
                                -0.017602505162358284
                            ],
                            [
                                0.012477638199925423
                            ],
                            [
                                0.006293073762208223
                            ]
                        ],
                        [
                            [
                                -0.005024676211178303
                            ],
                            [
                                -0.012609307654201984
                            ],
                            [
                                -0.022178834304213524
                            ],
                            [
                                -0.006890051532536745
                            ],
                            [
                                -0.00909355841577053
                            ],
                            [
                                -0.06624735891819
                            ],
                            [
                                0.07376153022050858
                            ],
                            [
                                -0.02067001909017563
                            ],
                            [
                                -0.02030550315976143
                            ],
                            [
                                -0.013574851676821709
                            ],
                            [
                                -0.014845304191112518
                            ],
                            [
                                0.007364984601736069
                            ],
                            [
                                -0.014342628419399261
                            ],
                            [
                                -0.0030801338143646717
                            ],
                            [
                                -0.01627899333834648
                            ],
                            [
                                0.03492803871631622
                            ],
                            [
                                -0.004268106073141098
                            ],
                            [
                                -0.030394364148378372
                            ],
                            [
                                0.08853264153003693
                            ],
                            [
                                -0.02100525237619877
                            ],
                            [
                                -0.010227237828075886
                            ],
                            [
                                -0.03060613013803959
                            ],
                            [
                                0.00020983642025385052
                            ],
                            [
                                -0.02775660715997219
                            ],
                            [
                                -0.02392319217324257
                            ],
                            [
                                -0.01585640199482441
                            ],
                            [
                                -0.028935683891177177
                            ],
                            [
                                0.008372362703084946
                            ],
                            [
                                -0.030529474839568138
                            ],
                            [
                                0.00802359078079462
                            ],
                            [
                                -0.004146063234657049
                            ],
                            [
                                -0.01749446429312229
                            ]
                        ],
                        [
                            [
                                0.0019645567517727613
                            ],
                            [
                                -0.020354600623250008
                            ],
                            [
                                0.012793239206075668
